{"learner":{"attributes":{},"feature_names":["input_size","nb_layers","sum_activations","gpu_memory","gpu_memory_bandwidth","gpu_power","gpu_flops","gpu_nb_cores","gpu_nb_tensor_cores","params"],"feature_types":["int","int","int","int","float","int","float","int","int","float"],"gradient_booster":{"model":{"gbtree_model_param":{"num_parallel_tree":"1","num_trees":"51"},"iteration_indptr":[0,1,2,3,4,5,6,7,8,9,10,11,12,13,14,15,16,17,18,19,20,21,22,23,24,25,26,27,28,29,30,31,32,33,34,35,36,37,38,39,40,41,42,43,44,45,46,47,48,49,50,51],"tree_info":[0,0,0,0,0,0,0,0,0,0,0,0,0,0,0,0,0,0,0,0,0,0,0,0,0,0,0,0,0,0,0,0,0,0,0,0,0,0,0,0,0,0,0,0,0,0,0,0,0,0,0],"trees":[{"base_weights":[-1.3045003E1,-3.207333E2,1.659923E3,-4.800338E2,3.144537E2,8.46339E2,2.305778E3,-7.0986115E2,-1.2671878E2,8.266173E2,-2.7541998E2,1.3349865E-1,9.524003E1,1.1141405E2,1.6233403E2,-5.413163E2,-8.083557E2,5.737982E1,-3.3402548E2,2.4725789E2,1.0756954E2,-4.7233554E2,4.749968E0,-9.115547E2,-2.8499286E2,-9.7740924E2,-4.872279E2,-4.1157437E2,3.3515305E2,-3.203396E1,-1.1236308E2,2.318567E1,-3.8619773E0,-1.7658075E1,-3.2100117E1,-6.663602E1,-4.0832325E1,-5.080163E2,-9.517438E1,-6.830663E2,-6.183009E1,-8.719071E0,-3.8831467E1,-2.7282494E1,-1.4835253E1,6.7673584E2,5.0768635E1,2.4469294E1,-1.8905058E1,-2.2022928E1,-3.617265E1,-1.8124876E1,2.5329044E1,-5.5568527E1,-2.4412743E1,1.2694502E1,6.1948868E1,-6.6019816E0,1.9596134E1,1.0714153E1,-7.9367194E0],"categories":[],"categories_nodes":[],"categories_segments":[],"categories_sizes":[],"default_left":[0,0,0,0,0,0,0,0,0,0,0,0,0,0,0,0,0,0,0,0,0,0,0,0,0,0,0,0,0,0,0,0,0,0,0,0,0,0,0,0,0,0,0,0,0,0,0,0,0,0,0,0,0,0,0,0,0,0,0,0,0],"id":0,"left_children":[1,3,5,7,9,11,13,15,17,19,21,-1,-1,-1,-1,23,25,27,29,31,-1,33,-1,35,37,39,41,43,45,-1,47,-1,-1,-1,-1,-1,-1,49,51,53,-1,-1,-1,-1,-1,55,57,-1,-1,-1,-1,-1,59,-1,-1,-1,-1,-1,-1,-1,-1],"loss_changes":[2.3525962E8,3.9208588E7,3.5355984E7,2.5001304E7,2.3792392E7,2.2118844E7,2.029232E6,2.66676E6,4.7134465E6,2.4516426E7,2.641471E6,0E0,0E0,0E0,0E0,6.573068E6,5.82116E6,8.735293E6,2.737968E6,1.3632274E6,0E0,1.571625E5,0E0,6.1929E5,1.8143442E6,1.207832E6,2.471272E6,1.07659E5,4.0455575E6,0E0,3.5533808E6,0E0,0E0,0E0,0E0,0E0,0E0,5.9746E4,6.617676E5,1.036944E6,0E0,0E0,0E0,0E0,0E0,3.164264E6,1.1706005E6,0E0,0E0,0E0,0E0,0E0,4.6388144E5,0E0,0E0,0E0,0E0,0E0,0E0,0E0,0E0],"parents":[2147483647,0,0,1,1,2,2,3,3,4,4,5,5,6,6,7,7,8,8,9,9,10,10,15,15,16,16,17,17,18,18,19,19,21,21,23,23,24,24,25,25,26,26,27,27,28,28,30,30,37,37,38,38,39,39,45,45,46,46,52,52],"right_children":[2,4,6,8,10,12,14,16,18,20,22,-1,-1,-1,-1,24,26,28,30,32,-1,34,-1,36,38,40,42,44,46,-1,48,-1,-1,-1,-1,-1,-1,50,52,54,-1,-1,-1,-1,-1,56,58,-1,-1,-1,-1,-1,60,-1,-1,-1,-1,-1,-1,-1,-1],"split_conditions":[5.17E2,2.73E2,1.376E2,1.376E2,3.8E2,7.82E2,2.494E3,9.3E1,1.46E2,3.79E2,1.376E2,1.3349865E-1,9.524003E1,1.1141405E2,1.6233403E2,3.3E1,1.61E2,3.5E1,1.61E2,3.35E2,1.0756954E2,5.84E1,4.749968E0,2.2E1,5.84E1,1.46E2,1.83E2,2.7E1,7E1,-3.203396E1,1.83E2,2.318567E1,-3.8619773E0,-1.7658075E1,-3.2100117E1,-6.663602E1,-4.0832325E1,5.7E1,4.5E1,1.3E2,-6.183009E1,-8.719071E0,-3.8831467E1,-2.7282494E1,-1.4835253E1,5.2E1,1.01E2,2.4469294E1,-1.8905058E1,-2.2022928E1,-3.617265E1,-1.8124876E1,7E1,-5.5568527E1,-2.4412743E1,1.2694502E1,6.1948868E1,-6.6019816E0,1.9596134E1,1.0714153E1,-7.9367194E0],"split_indices":[1,1,4,4,1,1,1,1,1,1,4,0,0,0,0,1,1,1,1,1,0,4,0,1,4,1,1,1,1,0,1,0,0,0,0,0,0,1,1,1,0,0,0,0,0,1,1,0,0,0,0,0,1,0,0,0,0,0,0,0,0],"split_type":[0,0,0,0,0,0,0,0,0,0,0,0,0,0,0,0,0,0,0,0,0,0,0,0,0,0,0,0,0,0,0,0,0,0,0,0,0,0,0,0,0,0,0,0,0,0,0,0,0,0,0,0,0,0,0,0,0,0,0,0,0],"sum_hessian":[4.55E2,3.85E2,7E1,3.08E2,7.7E1,3.2E1,3.8E1,1.86E2,1.22E2,4.1E1,3.6E1,1.6E1,1.6E1,2.4E1,1.4E1,7.1E1,1.15E2,6.5E1,5.7E1,2.7E1,1.4E1,2.3E1,1.3E1,2.8E1,4.3E1,7.4E1,4.1E1,2.4E1,4.1E1,2.8E1,2.9E1,1.8E1,9E0,9E0,1.4E1,1.1E1,1.7E1,1.9E1,2.4E1,1.9E1,5.5E1,1.5E1,2.6E1,1.6E1,8E0,1.8E1,2.3E1,8E0,2.1E1,1.1E1,8E0,8E0,1.6E1,8E0,1.1E1,9E0,9E0,1.5E1,8E0,8E0,8E0],"tree_param":{"num_deleted":"0","num_feature":"10","num_nodes":"61","size_leaf_vector":"1"}},{"base_weights":[2.6731133E1,-1.8828674E2,2.1285342E3,-5.0491763E2,2.591398E2,7.824453E1,2.4739578E3,-6.362573E2,-7.032457E1,3.8766403E1,1.0460055E3,1.1354364E2,1.6612402E2,-8.3317126E2,-4.678306E2,5.6922296E2,-3.512799E2,-3.0891245E2,2.1041402E2,1.1797389E2,6.941347E2,-6.749696E2,-9.6982135E2,1.1452548E1,-5.296634E2,-1.2984071E0,5.8139423E1,-5.0487994E2,2.4392757E0,-1.9661726E2,-3.0257618E1,-2.7437075E1,3.4112445E2,5.002963E0,6.9066605E1,-5.4003498E1,-5.754513E2,-6.461639E1,-6.599734E2,-3.174595E2,-6.658416E2,-5.8090247E2,-1.4774416E1,-4.2347498E2,6.0283494E0,9.3626294E2,-3.8984467E1,-7.200127E2,-1.9430174E1,-5.653876E1,-1.5830027E1,-3.2002914E1,-1.7707056E1,-8.6046204E2,-3.5895462E2,-3.800977E1,-2.2830492E1,-1.508187E1,-3.1627048E1,6.283627E2,9.597772E1,-2.30928E2,2.5373163E1,-2.5854616E1,-5.6750885E1,2.1197245E1,-2.8077826E1,-2.9129084E1,-5.58137E1,-5.737376E0,-3.6719093E1,2.2403152E1,4.2114952E1,-4.4193478E2,1.635334E1,-3.484602E1,-1.2979923E1,7.9207845E0,-5.419882E0],"categories":[],"categories_nodes":[],"categories_segments":[],"categories_sizes":[],"default_left":[0,0,0,0,0,0,0,0,0,0,0,0,0,0,0,0,0,0,0,0,0,0,0,0,0,0,0,0,0,0,0,0,0,0,0,0,0,0,0,0,0,0,0,0,0,0,0,0,0,0,0,0,0,0,0,0,0,0,0,0,0,0,0,0,0,0,0,0,0,0,0,0,0,0,0,0,0,0,0],"id":1,"left_children":[1,3,5,7,9,-1,11,13,15,17,19,-1,-1,21,23,25,27,29,31,-1,33,35,37,-1,39,-1,-1,41,-1,43,-1,-1,45,-1,-1,-1,47,-1,49,51,53,55,-1,57,-1,59,61,63,-1,-1,-1,-1,65,67,69,-1,-1,-1,-1,71,-1,73,-1,-1,-1,-1,-1,-1,-1,-1,-1,-1,-1,75,77,-1,-1,-1,-1],"loss_changes":[2.1913258E8,6.2465228E7,8.800816E6,1.4681724E7,3.1692432E7,0E0,4.2824E5,6.177E6,1.1160699E7,8.658668E6,1.246996E7,0E0,0E0,1.291044E6,4.587188E6,4.8813105E6,2.6188735E6,1.041863E6,8.821454E6,0E0,9.237811E6,6.07946E5,1.307192E6,0E0,2.678378E6,0E0,0E0,4.42223E5,0E0,2.293317E6,0E0,0E0,1.858633E7,0E0,0E0,0E0,9.77118E5,0E0,1.8014775E6,2.8638398E6,3.27472E6,6.1194E4,0E0,2.357755E5,0E0,6.025968E6,4.761138E6,1.050166E6,0E0,0E0,0E0,0E0,3.5660422E6,8.21484E5,1.7164975E6,0E0,0E0,0E0,0E0,2.8506E5,0E0,1.9378148E6,0E0,0E0,0E0,0E0,0E0,0E0,0E0,0E0,0E0,0E0,0E0,5.5714825E5,2.4990039E5,0E0,0E0,0E0,0E0],"parents":[2147483647,0,0,1,1,2,2,3,3,4,4,6,6,7,7,8,8,9,9,10,10,13,13,14,14,15,15,16,16,17,17,18,18,20,20,21,21,22,22,24,24,27,27,29,29,32,32,36,36,38,38,39,39,40,40,41,41,43,43,45,45,46,46,47,47,52,52,53,53,54,54,59,59,61,61,73,73,74,74],"right_children":[2,4,6,8,10,-1,12,14,16,18,20,-1,-1,22,24,26,28,30,32,-1,34,36,38,-1,40,-1,-1,42,-1,44,-1,-1,46,-1,-1,-1,48,-1,50,52,54,56,-1,58,-1,60,62,64,-1,-1,-1,-1,66,68,70,-1,-1,-1,-1,72,-1,74,-1,-1,-1,-1,-1,-1,-1,-1,-1,-1,-1,76,78,-1,-1,-1,-1],"split_conditions":[7.82E2,1.376E2,2.8680924E7,2.73E2,3.47E2,7.824453E1,2.494E3,9.049628E7,3.8E2,2.9526216E7,3.8E2,1.1354364E2,1.6612402E2,1.2E5,1.18630136E8,3.47E2,7.2323686E8,3E4,3.4E1,1.1797389E2,5.17E2,3.7E1,3.675E5,1.1452548E1,1.14E2,-1.2984071E0,5.8139423E1,5.66E2,2.4392757E0,1.6875E4,-3.0257618E1,-2.7437075E1,8.2E1,5.002963E0,6.9066605E1,-5.4003498E1,2.43E4,-6.461639E1,5.84E1,5.84E1,1.61E2,2.7E5,-1.4774416E1,1.61142E6,6.0283494E0,6.2E1,7.68E6,3.680024E6,-1.9430174E1,-5.653876E1,-1.5830027E1,-3.2002914E1,4.8E5,1.53E2,1.83E2,-3.800977E1,-2.2830492E1,-1.508187E1,-3.1627048E1,2.68203E5,9.597772E1,1.61E2,2.5373163E1,-2.5854616E1,-5.6750885E1,2.1197245E1,-2.8077826E1,-2.9129084E1,-5.58137E1,-5.737376E0,-3.6719093E1,2.2403152E1,4.2114952E1,1.47E6,2.7447904E8,-3.484602E1,-1.2979923E1,7.9207845E0,-5.419882E0],"split_indices":[1,4,2,1,1,0,1,2,1,2,1,0,0,0,2,1,2,0,1,0,1,1,0,0,1,0,0,1,0,0,0,0,1,0,0,0,0,0,4,4,1,0,0,2,0,1,0,2,0,0,0,0,0,1,1,0,0,0,0,0,0,1,0,0,0,0,0,0,0,0,0,0,0,0,2,0,0,0,0],"split_type":[0,0,0,0,0,0,0,0,0,0,0,0,0,0,0,0,0,0,0,0,0,0,0,0,0,0,0,0,0,0,0,0,0,0,0,0,0,0,0,0,0,0,0,0,0,0,0,0,0,0,0,0,0,0,0,0,0,0,0,0,0,0,0,0,0,0,0,0,0,0,0,0,0,0,0,0,0,0,0],"sum_hessian":[4.83E2,4.39E2,4.4E1,2.57E2,1.82E2,1.5E1,2.9E1,1.97E2,6E1,1.43E2,3.9E1,1.5E1,1.4E1,8.9E1,1.08E2,1.8E1,4.2E1,4.7E1,9.6E1,9E0,3E1,4.4E1,4.5E1,9E0,9.9E1,8E0,1E1,3E1,1.2E1,3.2E1,1.5E1,1.5E1,8.1E1,1.4E1,1.6E1,1E1,3.4E1,2.9E1,1.6E1,4E1,5.9E1,2.2E1,8E0,1.8E1,1.4E1,3.1E1,5E1,2E1,1.4E1,8E0,8E0,2.2E1,1.8E1,3.5E1,2.4E1,1.4E1,8E0,9E0,9E0,2.3E1,8E0,3.6E1,1.4E1,1.1E1,9E0,1E1,8E0,9E0,2.6E1,1.3E1,1.1E1,8E0,1.5E1,1.9E1,1.7E1,1E1,9E0,8E0,9E0],"tree_param":{"num_deleted":"0","num_feature":"10","num_nodes":"79","size_leaf_vector":"1"}},{"base_weights":[-4.3947556E1,-4.4475156E2,1.9654962E3,-6.888377E2,2.5516472E2,6.395567E1,2.1582107E3,-8.419471E2,-3.8039075E2,6.756737E0,5.2779395E2,1.0581808E2,1.594204E2,-1.0205764E3,-5.713917E2,-5.49707E2,-9.997499E1,-1.5952133E2,1.2393076E2,2.771246E2,4.9090374E1,-6.58691E1,-4.659838E1,-6.22364E2,-1.852141E1,-7.354267E2,-2.846593E2,-2.4029364E2,1.4365571E1,-1.3712482E1,-5.67524E0,-7.824503E0,2.5352408E2,-3.12526E0,3.9992075E2,-4.1164593E1,-4.959704E2,-4.9928917E1,-3.2281498E1,-2.4649431E1,-1.1379379E1,-2.2545412E1,-4.423752E0,1.0654186E1,1.9854727E1,1.5277027E1,2.7537508E1,-3.1924992E1,-1.902071E1],"categories":[],"categories_nodes":[],"categories_segments":[],"categories_sizes":[],"default_left":[0,0,0,0,0,0,0,0,0,0,0,0,0,0,0,0,0,0,0,0,0,0,0,0,0,0,0,0,0,0,0,0,0,0,0,0,0,0,0,0,0,0,0,0,0,0,0,0,0],"id":2,"left_children":[1,3,5,7,9,-1,11,13,15,17,19,-1,-1,21,23,25,27,29,31,33,-1,-1,-1,35,-1,37,39,41,-1,-1,-1,-1,43,-1,45,-1,47,-1,-1,-1,-1,-1,-1,-1,-1,-1,-1,-1,-1],"loss_changes":[3.9712755E8,7.039097E7,1.127264E7,1.4083712E7,7.242824E6,0E0,8.009344E6,9.227648E6,4.835375E6,1.1303274E6,3.828852E6,0E0,0E0,2.096656E6,8.69028E5,2.941028E6,2.0095255E6,9.057894E4,1.1741128E6,1.240748E6,0E0,0E0,0E0,3.93754E5,0E0,3.48854E5,2.6410825E5,6.750201E5,0E0,0E0,0E0,0E0,7.969375E4,0E0,9.91295E4,0E0,1.01406E5,0E0,0E0,0E0,0E0,0E0,0E0,0E0,0E0,0E0,0E0,0E0,0E0],"parents":[2147483647,0,0,1,1,2,2,3,3,4,4,6,6,7,7,8,8,9,9,10,10,13,13,14,14,15,15,16,16,17,17,18,18,19,19,23,23,25,25,26,26,27,27,32,32,34,34,36,36],"right_children":[2,4,6,8,10,-1,12,14,16,18,20,-1,-1,22,24,26,28,30,32,34,-1,-1,-1,36,-1,38,40,42,-1,-1,-1,-1,44,-1,46,-1,48,-1,-1,-1,-1,-1,-1,-1,-1,-1,-1,-1,-1],"split_conditions":[3.7753304E7,1.7249284E7,7.2E1,3E1,3E1,6.395567E1,4.9432216E7,8.843764E6,7.656048E6,2.2549012E7,2.5097136E7,1.0581808E2,1.594204E2,2.4807149E8,7.090621E8,2.7447904E8,1.4011344E8,8.7E1,5.7E1,4.3E1,4.9090374E1,-6.58691E1,-4.659838E1,1.1788969E7,-1.852141E1,3.233258E6,2.500618E6,1.2320528E7,1.4365571E1,-1.3712482E1,-5.67524E0,-7.824503E0,2.6147952E7,-3.12526E0,2.0466826E7,-4.1164593E1,1.1949765E8,-4.9928917E1,-3.2281498E1,-2.4649431E1,-1.1379379E1,-2.2545412E1,-4.423752E0,1.0654186E1,1.9854727E1,1.5277027E1,2.7537508E1,-3.1924992E1,-1.902071E1],"split_indices":[9,9,1,5,5,0,9,9,9,9,9,0,0,2,2,2,2,1,1,1,0,0,0,9,0,9,9,9,0,0,0,0,9,0,9,0,2,0,0,0,0,0,0,0,0,0,0,0,0],"split_type":[0,0,0,0,0,0,0,0,0,0,0,0,0,0,0,0,0,0,0,0,0,0,0,0,0,0,0,0,0,0,0,0,0,0,0,0,0,0,0,0,0,0,0,0,0,0,0,0,0],"sum_hessian":[4.91E2,4.1E2,8.1E1,3.04E2,1.06E2,1.6E1,6.5E1,2.02E2,1.02E2,5.6E1,5E1,4.4E1,2.1E1,1.2E2,8.2E1,6.3E1,3.9E1,2.3E1,3.3E1,2.9E1,2.1E1,7.6E1,4.4E1,6.7E1,1.5E1,3.6E1,2.7E1,2.8E1,1.1E1,9E0,1.4E1,1.1E1,2.2E1,8E0,2.1E1,3.7E1,3E1,1.9E1,1.7E1,9E0,1.8E1,1.4E1,1.4E1,1.4E1,8E0,9E0,1.2E1,2.1E1,9E0],"tree_param":{"num_deleted":"0","num_feature":"10","num_nodes":"49","size_leaf_vector":"1"}},{"base_weights":[-1.0998634E0,-6.598422E2,2.2445078E2,-7.5463214E2,-5.464655E2,-5.656764E1,5.5208734E2,-5.779648E2,-5.4304977E1,-2.8554884E1,-4.2282486E1,-3.486175E2,1.7340518E2,8.0071205E1,4.5718695E2,-6.6760767E2,-2.4624899E1,1.0739041E1,-4.353053E2,4.917675E2,-5.5934727E1,1.7330551E2,7.2450085E2,-2.9127449E1,-4.643482E1,-6.265845E2,-2.0536775E2,2.179214E2,7.451232E2,-4.8235217E2,1.3995009E2,-2.6342306E1,4.9778104E2,2.195775E2,9.6805615E2,-3.991242E2,-5.0444607E1,2.1694803E1,-3.8416605E2,4.754358E1,-2.053104E1,2.734875E1,5.097714E1,-3.493631E1,-1.8521275E1,3.817834E2,-2.2380162E2,3.578208E2,-2.48555E2,6.624345E2,6.8905587E0,4.1131473E2,-5.61395E0,7.877574E1,8.460506E2,-3.6235504E1,-2.5613537E0,-1.8012949E0,-5.786295E2,2.0629642E2,4.2339424E1,-6.735326E0,-1.6930298E1,1.2610043E1,2.6041054E1,-2.3801064E1,1.1124512E1,4.9966255E1,2.6618244E1,8.5232315E0,3.6579113E1,1.4623974E1,1.1241901E3,-2.2672028E1,-4.0058437E1,2.3821075E1,-5.148201E0,9.659079E1,8.393694E2,1.4409399E1,8.503587E1],"categories":[],"categories_nodes":[],"categories_segments":[],"categories_sizes":[],"default_left":[0,0,0,0,0,0,0,0,0,0,0,0,0,0,0,0,0,0,0,0,0,0,0,0,0,0,0,0,0,0,0,0,0,0,0,0,0,0,0,0,0,0,0,0,0,0,0,0,0,0,0,0,0,0,0,0,0,0,0,0,0,0,0,0,0,0,0,0,0,0,0,0,0,0,0,0,0,0,0,0,0],"id":3,"left_children":[1,3,5,7,9,11,13,15,-1,-1,-1,17,19,-1,21,23,-1,-1,25,27,29,31,33,-1,-1,35,37,39,41,43,45,47,49,51,53,55,-1,-1,57,-1,-1,-1,-1,-1,-1,59,61,63,65,67,-1,69,-1,-1,71,-1,-1,-1,73,75,-1,-1,-1,-1,-1,-1,-1,-1,-1,-1,-1,-1,77,-1,-1,-1,-1,-1,79,-1,-1],"loss_changes":[7.339791E7,9.4174E5,3.391369E7,1.567704E6,2.47336E5,1.3425994E7,1.2714836E7,2.13078E5,0E0,0E0,0E0,4.151161E6,8.204983E6,0E0,1.15608E7,5.9382E4,0E0,0E0,3.213973E6,3.098505E6,5.580399E6,4.9364555E6,9.502596E6,0E0,0E0,1.913479E6,3.8709535E6,8.535019E6,4.60991E5,2.176655E5,4.1319382E6,4.186502E6,1.7314845E6,1.6771422E6,1.366836E6,1.810124E6,0E0,0E0,1.9048692E6,0E0,0E0,0E0,0E0,0E0,0E0,1.557278E6,1.050825E5,1.322565E5,2.281524E6,4.13969E5,0E0,8.9126925E5,0E0,0E0,6.822714E6,0E0,0E0,0E0,1.076945E5,1.2401548E6,0E0,0E0,0E0,0E0,0E0,0E0,0E0,0E0,0E0,0E0,0E0,0E0,3.060992E6,0E0,0E0,0E0,0E0,0E0,7.400888E6,0E0,0E0],"parents":[2147483647,0,0,1,1,2,2,3,3,4,4,5,5,6,6,7,7,11,11,12,12,14,14,15,15,18,18,19,19,20,20,21,21,22,22,25,25,26,26,27,27,28,28,29,29,30,30,31,31,32,32,33,33,34,34,35,35,38,38,45,45,46,46,47,47,48,48,49,49,51,51,54,54,58,58,59,59,72,72,78,78],"right_children":[2,4,6,8,10,12,14,16,-1,-1,-1,18,20,-1,22,24,-1,-1,26,28,30,32,34,-1,-1,36,38,40,42,44,46,48,50,52,54,56,-1,-1,58,-1,-1,-1,-1,-1,-1,60,62,64,66,68,-1,70,-1,-1,72,-1,-1,-1,74,76,-1,-1,-1,-1,-1,-1,-1,-1,-1,-1,-1,-1,78,-1,-1,-1,-1,-1,80,-1,-1],"split_conditions":[8E0,9.049628E7,1.4923266E8,1.2E5,4.32E6,1.6E1,3.28683E5,1.6875E4,-5.4304977E1,-2.8554884E1,-4.2282486E1,1.771156E6,3E4,8.0071205E1,1.6E1,5.074832E6,-2.4624899E1,1.0739041E1,2.9585004E7,1.6875E4,2.514138E7,9.6917274E8,3.463777E8,-2.9127449E1,-4.643482E1,3E4,5.2083936E7,2.711121E6,6.525076E6,1.283444E7,3.675E5,9.67872E5,2.2247022E9,9.67872E5,5.4075315E8,1.6875E4,-5.0444607E1,2.1694803E1,3.675E5,4.754358E1,-2.053104E1,2.734875E1,5.097714E1,-3.493631E1,-1.8521275E1,6.976155E7,9.939118E7,3.1118266E8,7.2323686E8,3.145728E6,6.8905587E0,2.1242296E8,-5.61395E0,7.877574E1,8.174634E8,-3.6235504E1,-2.5613537E0,-1.8012949E0,8.134304E7,5.162809E7,4.2339424E1,-6.735326E0,-1.6930298E1,1.2610043E1,2.6041054E1,-2.3801064E1,1.1124512E1,4.9966255E1,2.6618244E1,8.5232315E0,3.6579113E1,1.4623974E1,1.124991E9,-2.2672028E1,-4.0058437E1,2.3821075E1,-5.148201E0,9.659079E1,9.633792E6,1.4409399E1,8.503587E1],"split_indices":[3,2,2,0,0,3,0,0,0,0,0,2,0,0,3,2,0,0,2,0,2,2,2,0,0,0,2,2,2,2,0,0,2,0,2,0,0,0,0,0,0,0,0,0,0,2,2,2,2,0,0,2,0,0,2,0,0,0,2,2,0,0,0,0,0,0,0,0,0,0,0,0,2,0,0,0,0,0,0,0,0],"split_type":[0,0,0,0,0,0,0,0,0,0,0,0,0,0,0,0,0,0,0,0,0,0,0,0,0,0,0,0,0,0,0,0,0,0,0,0,0,0,0,0,0,0,0,0,0,0,0,0,0,0,0,0,0,0,0,0,0,0,0,0,0,0,0,0,0,0,0,0,0,0,0,0,0,0,0,0,0,0,0,0,0],"sum_hessian":[4.92E2,1.25E2,3.67E2,6.5E1,6E1,1.98E2,1.69E2,3.5E1,3E1,4.9E1,1.1E1,8.7E1,1.11E2,1.6E1,1.53E2,2E1,1.5E1,1.2E1,7.5E1,4.6E1,6.5E1,7.5E1,7.8E1,1.1E1,9E0,4E1,3.5E1,2.3E1,2.3E1,2E1,4.5E1,4.7E1,2.8E1,2.6E1,5.2E1,2.2E1,1.8E1,8E0,2.7E1,1.1E1,1.2E1,9E0,1.4E1,1E1,1E1,2.7E1,1.8E1,1.7E1,3E1,1.9E1,9E0,1.6E1,1E1,1E1,4.2E1,1.3E1,9E0,1E1,1.7E1,1.9E1,8E0,8E0,1E1,8E0,9E0,2.2E1,8E0,8E0,1.1E1,8E0,8E0,1.4E1,2.8E1,8E0,9E0,1.1E1,8E0,8E0,2E1,1.1E1,9E0],"tree_param":{"num_deleted":"0","num_feature":"10","num_nodes":"81","size_leaf_vector":"1"}},{"base_weights":[-3.951711E-2,-2.1836967E2,1.938733E3,-4.5891788E2,1.7577042E2,1.4419717E2,1.7012012E3,-6.379082E2,-2.951737E2,-6.350115E1,7.6303754E2,4.480124E1,1.2836673E2,-7.6543066E2,-4.2945236E2,-4.254448E2,1.6487581E1,1.3609482E2,-3.2215436E2,2.3104536E2,1.2247596E3,-6.9329755E2,-5.252873E1,-8.367958E0,-4.8581555E2,-1.3370863E2,-6.0855176E2,3.243628E1,-3.1332812E2,-4.0184186E2,3.6386166E2,-5.2762054E2,-1.1985881E2,3.5133087E1,3.5666707E-1,5.4461403E1,8.883786E1,-5.1533497E1,-6.093561E2,-4.1896112E2,-3.323181E1,-4.6939417E2,4.7862247E1,-7.131839E2,-8.780975E0,-4.2368465E1,2.592967E0,-1.5866133E1,-2.760186E1,8.078349E2,2.0305002E0,-2.2518255E1,-3.5973583E1,-1.928409E1,3.4917119E0,-7.692313E2,-4.217828E2,-3.1742771E1,-1.5773738E1,-4.837341E1,-1.9571826E2,-8.1570404E2,-4.9758664E2,9.78696E0,7.183499E1,1.425655E1,-1.4691913E2,-3.4170624E1,-5.60037E1,-1.3476519E1,-2.9813591E1,-1.8209417E1,-1.7302175E0,-2.7114859E1,-6.0838894E1,-1.6543043E1,-3.6358757E1,-1.6718128E1,1.5177484E0],"categories":[],"categories_nodes":[],"categories_segments":[],"categories_sizes":[],"default_left":[0,0,0,0,0,0,0,0,0,0,0,0,0,0,0,0,0,0,0,0,0,0,0,0,0,0,0,0,0,0,0,0,0,0,0,0,0,0,0,0,0,0,0,0,0,0,0,0,0,0,0,0,0,0,0,0,0,0,0,0,0,0,0,0,0,0,0,0,0,0,0,0,0,0,0,0,0,0,0],"id":4,"left_children":[1,3,5,7,9,-1,11,13,15,17,19,-1,-1,21,23,25,27,29,31,33,35,37,-1,-1,39,41,43,-1,45,47,49,51,53,-1,-1,-1,-1,-1,55,57,-1,59,-1,61,-1,-1,-1,-1,-1,63,65,-1,-1,-1,-1,67,69,-1,-1,-1,71,73,75,-1,-1,-1,77,-1,-1,-1,-1,-1,-1,-1,-1,-1,-1,-1,-1],"loss_changes":[2.0910656E8,4.217617E7,2.24936E6,7.900888E6,2.3795714E7,0E0,1.6307472E7,3.153632E6,5.934681E6,6.2906055E6,1.1753018E7,0E0,0E0,1.77228E5,7.66173E5,5.420778E6,8.04423E6,8.600381E6,2.1397005E6,2.0158239E6,8.413E5,3.8927E5,0E0,0E0,9.211E3,1.3574509E7,2.906512E6,0E0,4.20759E6,6.87795E4,7.8698835E6,9.4053E4,1.0901464E6,0E0,0E0,0E0,0E0,0E0,9.65049E5,3.784755E5,0E0,2.924059E6,0E0,7.21372E5,0E0,0E0,0E0,0E0,0E0,5.832831E6,1.0518326E6,0E0,0E0,0E0,0E0,2.08892E5,2.63699E5,0E0,0E0,0E0,3.6248788E5,2.183036E6,3.41537E5,0E0,0E0,0E0,4.4696862E5,0E0,0E0,0E0,0E0,0E0,0E0,0E0,0E0,0E0,0E0,0E0,0E0],"parents":[2147483647,0,0,1,1,2,2,3,3,4,4,6,6,7,7,8,8,9,9,10,10,13,13,14,14,15,15,16,16,17,17,18,18,19,19,20,20,21,21,24,24,25,25,26,26,28,28,29,29,30,30,31,31,32,32,38,38,39,39,41,41,43,43,49,49,50,50,55,55,56,56,60,60,61,61,62,62,66,66],"right_children":[2,4,6,8,10,-1,12,14,16,18,20,-1,-1,22,24,26,28,30,32,34,36,38,-1,-1,40,42,44,-1,46,48,50,52,54,-1,-1,-1,-1,-1,56,58,-1,60,-1,62,-1,-1,-1,-1,-1,64,66,-1,-1,-1,-1,68,70,-1,-1,-1,72,74,76,-1,-1,-1,78,-1,-1,-1,-1,-1,-1,-1,-1,-1,-1,-1,-1],"split_conditions":[7.82E2,1.6E1,9.3E2,8E0,2.73E2,1.4419717E2,2.494E3,1.61E2,2.33E2,1.53E2,7.5E5,4.480124E1,1.2836673E2,1.54E2,1.83E2,8.9E1,3.8E2,3.1E1,7.5E5,3.8E2,4.29E2,3.3E1,-5.252873E1,-8.367958E0,3.87E2,5.8E1,7.68E6,3.243628E1,4.29E2,1.50528E5,3.675E5,3E4,1.61E2,3.5133087E1,3.5666707E-1,5.4461403E1,8.883786E1,-5.1533497E1,2.7E5,2.73E2,-3.323181E1,2.8E1,4.7862247E1,1.61E2,-8.780975E0,-4.2368465E1,2.592967E0,-1.5866133E1,-2.760186E1,1.2E5,6E1,-2.2518255E1,-3.5973583E1,-1.928409E1,3.4917119E0,9.3E1,7.2E1,-3.1742771E1,-1.5773738E1,-4.837341E1,4.4E1,1.46E2,1.99E2,9.78696E0,7.183499E1,1.425655E1,1.01E2,-3.4170624E1,-5.60037E1,-1.3476519E1,-2.9813591E1,-1.8209417E1,-1.7302175E0,-2.7114859E1,-6.0838894E1,-1.6543043E1,-3.6358757E1,-1.6718128E1,1.5177484E0],"split_indices":[1,3,1,3,1,0,1,1,1,1,0,0,0,1,1,1,1,1,0,1,1,1,0,0,1,1,0,0,1,0,0,0,1,0,0,0,0,0,0,1,0,1,0,1,0,0,0,0,0,0,1,0,0,0,0,1,1,0,0,0,1,1,1,0,0,0,1,0,0,0,0,0,0,0,0,0,0,0,0],"split_type":[0,0,0,0,0,0,0,0,0,0,0,0,0,0,0,0,0,0,0,0,0,0,0,0,0,0,0,0,0,0,0,0,0,0,0,0,0,0,0,0,0,0,0,0,0,0,0,0,0,0,0,0,0,0,0,0,0,0,0,0,0,0,0,0,0,0,0,0,0,0,0,0,0,0,0,0,0,0,0],"sum_hessian":[4.92E2,4.43E2,4.9E1,2.75E2,1.68E2,1.2E1,3.7E1,1.3E2,1.45E2,1.2E2,4.8E1,1.4E1,2.3E1,7.9E1,5.1E1,1.02E2,4.3E1,6.8E1,5.2E1,2.3E1,2.5E1,5.6E1,2.3E1,9E0,4.2E1,4E1,6.2E1,1.6E1,2.7E1,2E1,4.8E1,2.5E1,2.7E1,8E0,1.5E1,1.5E1,1E1,1.4E1,4.2E1,2.7E1,1.5E1,3E1,1E1,5E1,1.2E1,1.2E1,1.5E1,9E0,1.1E1,2.1E1,2.7E1,1.2E1,1.3E1,1.2E1,1.5E1,2.1E1,2.1E1,1.3E1,1.4E1,1.2E1,1.8E1,3.2E1,1.8E1,9E0,1.2E1,1E1,1.7E1,1.3E1,8E0,8E0,1.3E1,1E1,8E0,1.4E1,1.8E1,8E0,1E1,9E0,8E0],"tree_param":{"num_deleted":"0","num_feature":"10","num_nodes":"79","size_leaf_vector":"1"}},{"base_weights":[7.505748E0,-3.2358383E2,8.4477216E2,-5.151331E2,-8.901255E-1,4.7442422E2,1.8428995E3,-6.6442035E2,-3.768486E2,-4.0811368E2,1.9586833E2,8.576973E1,1.1184036E2,1.4762338E3,1.3583243E2,-3.6931735E2,-7.178391E2,-5.0708932E2,-2.774568E2,-9.503729E0,-5.204564E2,5.618528E2,5.2091732E1,-1.661449E2,8.0171985E2,1.3895526E2,3.773271E1,-2.7972303E1,-1.341634E1,-5.427911E2,-8.252216E2,-4.027263E1,-4.1261145E2,-2.5443387E0,-3.690444E2,-1.9410385E1,-3.487794E1,8.7809105E0,7.461758E2,-1.0339513E2,2.612492E2,3.47428E1,-3.7090173E2,1.245778E1,7.390659E1,-4.8111214E1,-5.061371E0,-5.544013E1,-3.190225E1,-1.1594104E1,-2.7185472E1,-2.3694109E1,2.105883E1,-5.4001764E2,4.6678967E0,5.5591007E1,2.623023E1,-2.4462317E2,7.515593E0,1.3786577E2,2.7258558E1,-4.0311043E1,-2.7972598E2,-4.019552E2,-3.846287E1,-1.5657986E1,1.616984E1,4.220202E0,-2.7660282E1,2.6889112E0,1.1624048E1,-3.966938E2,-3.923408E0,-3.1202375E1,-1.4775609E1,-1.717596E1,-3.0225122E1],"categories":[],"categories_nodes":[],"categories_segments":[],"categories_sizes":[],"default_left":[0,0,0,0,0,0,0,0,0,0,0,0,0,0,0,0,0,0,0,0,0,0,0,0,0,0,0,0,0,0,0,0,0,0,0,0,0,0,0,0,0,0,0,0,0,0,0,0,0,0,0,0,0,0,0,0,0,0,0,0,0,0,0,0,0,0,0,0,0,0,0,0,0,0,0,0,0],"id":5,"left_children":[1,3,5,7,9,11,13,15,17,19,21,-1,23,25,-1,27,29,31,33,-1,35,37,39,41,43,-1,-1,-1,-1,45,47,-1,49,51,53,-1,-1,-1,55,57,59,-1,61,-1,-1,-1,-1,-1,-1,-1,-1,-1,-1,63,65,-1,-1,67,-1,69,-1,-1,71,73,-1,-1,-1,-1,-1,-1,-1,75,-1,-1,-1,-1,-1],"loss_changes":[1.3499752E8,2.1571844E7,5.013797E7,4.270676E6,1.057627E7,3.693057E7,3.287584E6,1.374352E6,1.360908E6,1.0954455E6,4.653912E6,0E0,1.4708203E7,1.6636204E7,0E0,1.6858975E5,1.18742E6,5.77803E5,1.7112035E6,0E0,2.327285E5,1.7791815E6,2.1408922E6,8.832845E6,5.815566E6,0E0,0E0,0E0,0E0,4.618109E6,1.33566E6,0E0,3.21376E5,2.8151022E6,3.2611565E6,0E0,0E0,0E0,6.25247E5,1.2813399E6,6.54899E5,0E0,1.103522E6,0E0,0E0,0E0,0E0,0E0,0E0,0E0,0E0,0E0,0E0,3.25814E5,1.3526421E6,0E0,0E0,1.8003304E6,0E0,9.9209E4,0E0,0E0,8.66485E5,2.4285475E5,0E0,0E0,0E0,0E0,0E0,0E0,0E0,1.334085E5,0E0,0E0,0E0,0E0,0E0],"parents":[2147483647,0,0,1,1,2,2,3,3,4,4,5,5,6,6,7,7,8,8,9,9,10,10,12,12,13,13,15,15,16,16,17,17,18,18,20,20,21,21,22,22,23,23,24,24,29,29,30,30,32,32,33,33,34,34,38,38,39,39,40,40,42,42,53,53,54,54,57,57,59,59,62,62,63,63,71,71],"right_children":[2,4,6,8,10,12,14,16,18,20,22,-1,24,26,-1,28,30,32,34,-1,36,38,40,42,44,-1,-1,-1,-1,46,48,-1,50,52,54,-1,-1,-1,56,58,60,-1,62,-1,-1,-1,-1,-1,-1,-1,-1,-1,-1,64,66,-1,-1,68,-1,70,-1,-1,72,74,-1,-1,-1,-1,-1,-1,-1,76,-1,-1,-1,-1,-1],"split_conditions":[3.47E2,1.6E1,7.82E2,9.049628E7,3.515786E7,3.8E2,2.494E3,1.025748E6,8E0,4.651336E6,6.02112E5,8.576973E1,1.47E6,9.3E2,1.3583243E2,1.77E2,6.6E1,1.6404608E8,6.02112E5,-9.503729E0,4.5E1,4.6E1,1.61E2,1.771156E6,1.6E1,1.3895526E2,3.773271E1,-2.7972303E1,-1.341634E1,3.3E1,1.61E2,-4.027263E1,2.876038E8,4.7E1,7.68E6,-1.9410385E1,-3.487794E1,8.7809105E0,6.9E1,2.1675E6,7.68E6,3.47428E1,1.2288E4,1.245778E1,7.390659E1,-4.8111214E1,-5.061371E0,-5.544013E1,-3.190225E1,-1.1594104E1,-2.7185472E1,-2.3694109E1,2.105883E1,3.9182954E8,6.6312256E8,5.5591007E1,2.623023E1,5.7E1,7.515593E0,1.5656408E8,2.7258558E1,-4.0311043E1,1.6E1,1.6816406E8,-3.846287E1,-1.5657986E1,1.616984E1,4.220202E0,-2.7660282E1,2.6889112E0,1.1624048E1,8E0,-3.923408E0,-3.1202375E1,-1.4775609E1,-1.717596E1,-3.0225122E1],"split_indices":[1,3,1,2,2,1,1,2,3,2,0,0,0,1,0,1,1,2,0,0,1,1,1,2,3,0,0,0,0,1,1,0,2,1,0,0,0,0,1,0,0,0,0,0,0,0,0,0,0,0,0,0,0,2,2,0,0,1,0,2,0,0,3,2,0,0,0,0,0,0,0,3,0,0,0,0,0],"split_type":[0,0,0,0,0,0,0,0,0,0,0,0,0,0,0,0,0,0,0,0,0,0,0,0,0,0,0,0,0,0,0,0,0,0,0,0,0,0,0,0,0,0,0,0,0,0,0,0,0,0,0,0,0,0,0,0,0,0,0,0,0,0,0,0,0,0,0,0,0,0,0,0,0,0,0,0,0],"sum_hessian":[4.85E2,3.48E2,1.37E2,2.18E2,1.3E2,1.01E2,3.6E1,1.03E2,1.15E2,4.2E1,8.8E1,2.6E1,7.5E1,2.3E1,1.3E1,1.7E1,8.6E1,4.8E1,6.7E1,1.4E1,2.8E1,2.4E1,6.4E1,5.4E1,2.1E1,1E1,1.3E1,8E0,9E0,3.5E1,5.1E1,1.4E1,3.4E1,1.7E1,5E1,1E1,1.8E1,8E0,1.6E1,3.7E1,2.7E1,1.1E1,4.3E1,1E1,1.1E1,2.1E1,1.4E1,3.3E1,1.8E1,8E0,2.6E1,8E0,9E0,3.4E1,1.6E1,8E0,8E0,2.3E1,1.4E1,1.8E1,9E0,8E0,3.5E1,1.8E1,1.6E1,8E0,8E0,1E1,1.3E1,8E0,1E1,2.2E1,1.3E1,8E0,1E1,1.4E1,8E0],"tree_param":{"num_deleted":"0","num_feature":"10","num_nodes":"77","size_leaf_vector":"1"}},{"base_weights":[-6.783306E0,-2.3518704E2,1.2789004E3,-4.2934598E2,7.0186264E1,9.424126E2,1.1721672E2,-5.6613696E2,-2.0556964E2,-4.033769E1,7.720921E2,9.304919E1,7.150353E2,-4.057712E2,-7.231864E2,-6.439168E2,-1.06121956E2,-2.3970285E2,2.0954105E2,9.101765E1,-5.449095E0,-4.3094654E1,1.2443037E3,-4.3831436E1,-2.0905319E2,-8.450026E2,-4.798395E2,-2.2306833E1,-4.830129E1,5.3208206E1,-4.2070068E2,-3.3239246E2,3.1813183E1,6.085641E1,2.0822037E1,-4.0512695E0,-6.7423606E-1,1.1569427E2,4.1343052E1,-5.0310983E2,6.0073177E1,-3.265838E1,-5.20005E1,-3.7443264E1,-1.8924086E1,-2.5709567E2,4.4552742E1,-3.2422272E2,-3.291048E1,-1.0094392E2,-4.3069196E2,1.0941457E1,-1.0484555E1,-1.1818777E2,2.1841594E2,-3.8180225E1,-2.233355E1,-1.6144028E1,2.4460709E2,2.9866123E0,-4.2636658E2,-1.3272288E1,-2.2896677E1,-1.1046307E1,-6.0634756E-1,-1.5596033E2,-3.6915115E1,3.1242635E0,-2.0688167E2,-1.7764714E0,2.1712166E1,3.0690496E1,-5.700607E0,-3.3588013E1,-6.29199E0,-1.656167E1,2.9418516E-1,-1.9299646E1,-9.5587033E-1],"categories":[],"categories_nodes":[],"categories_segments":[],"categories_sizes":[],"default_left":[0,0,0,0,0,0,0,0,0,0,0,0,0,0,0,0,0,0,0,0,0,0,0,0,0,0,0,0,0,0,0,0,0,0,0,0,0,0,0,0,0,0,0,0,0,0,0,0,0,0,0,0,0,0,0,0,0,0,0,0,0,0,0,0,0,0,0,0,0,0,0,0,0,0,0,0,0,0,0],"id":6,"left_children":[1,3,5,7,9,11,-1,13,15,17,19,-1,21,23,25,27,29,31,33,-1,-1,35,37,-1,39,41,43,-1,-1,45,47,49,51,-1,53,-1,-1,-1,-1,55,57,-1,-1,-1,-1,59,-1,61,-1,63,65,-1,-1,67,69,-1,-1,-1,71,-1,73,-1,-1,-1,-1,75,-1,-1,77,-1,-1,-1,-1,-1,-1,-1,-1,-1,-1],"loss_changes":[1.3626302E8,2.3390766E7,1.5533336E7,7.260772E6,1.1978065E7,6.36238E6,0E0,3.459164E6,3.9857795E6,6.7257205E6,1.4618285E7,0E0,1.570254E7,5.063855E6,1.788164E6,5.106765E5,3.8817695E6,1.8980775E6,9.475622E6,0E0,0E0,1.347415E4,7.743244E6,0E0,3.987143E6,1.84112E5,4.75807E5,0E0,0E0,1.1722342E7,1.82955E5,1.230596E6,6.9960394E5,0E0,1.3991886E6,0E0,0E0,0E0,0E0,1.86207E5,1.7529192E6,0E0,0E0,0E0,0E0,1.9543458E6,0E0,3.06085E4,0E0,1.4354342E5,2.099486E6,0E0,0E0,4.688104E5,8.251095E5,0E0,0E0,0E0,1.804728E6,0E0,1.09894E6,0E0,0E0,0E0,0E0,3.7630653E5,0E0,0E0,4.727435E5,0E0,0E0,0E0,0E0,0E0,0E0,0E0,0E0,0E0,0E0],"parents":[2147483647,0,0,1,1,2,2,3,3,4,4,5,5,7,7,8,8,9,9,10,10,12,12,13,13,14,14,15,15,16,16,17,17,18,18,21,21,22,22,24,24,25,25,26,26,29,29,30,30,31,31,32,32,34,34,39,39,40,40,45,45,47,47,49,49,50,50,53,53,54,54,58,58,60,60,65,65,68,68],"right_children":[2,4,6,8,10,12,-1,14,16,18,20,-1,22,24,26,28,30,32,34,-1,-1,36,38,-1,40,42,44,-1,-1,46,48,50,52,-1,54,-1,-1,-1,-1,56,58,-1,-1,-1,-1,60,-1,62,-1,64,66,-1,-1,68,70,-1,-1,-1,72,-1,74,-1,-1,-1,-1,76,-1,-1,78,-1,-1,-1,-1,-1,-1,-1,-1,-1,-1],"split_conditions":[5.17E2,1.6E1,2.494E3,1.61E2,3.79E2,5.76E2,1.1721672E2,9.3E1,1.6875E4,1.4011344E8,3.8E2,9.304919E1,7.82E2,3.2E1,3.2963424E8,8E0,3.8E2,3.28683E5,4.8E5,9.101765E1,-5.449095E0,9.408E3,1.219E3,-4.3831436E1,8E0,6.43986E6,8E0,-2.2306833E1,-4.830129E1,2.73E2,3.1118266E8,5.2E1,9.8847864E7,6.085641E1,7.68E6,-4.0512695E0,-6.7423606E-1,1.1569427E2,4.1343052E1,7.524165E7,1.728E5,-3.265838E1,-5.20005E1,-3.7443264E1,-1.8924086E1,1.83E2,4.4552742E1,8E0,-3.291048E1,3.5E1,5.648851E6,1.0941457E1,-1.0484555E1,7.7E1,8.3978925E8,-3.8180225E1,-2.233355E1,-1.6144028E1,6.912E5,2.9866123E0,4.32E6,-1.3272288E1,-2.2896677E1,-1.1046307E1,-6.0634756E-1,2.43E4,-3.6915115E1,3.1242635E0,1.61E2,-1.7764714E0,2.1712166E1,3.0690496E1,-5.700607E0,-3.3588013E1,-6.29199E0,-1.656167E1,2.9418516E-1,-1.9299646E1,-9.5587033E-1],"split_indices":[1,3,1,1,1,1,0,1,0,2,1,0,1,1,2,3,1,0,0,0,0,0,1,0,3,2,3,0,0,1,2,1,2,0,0,0,0,0,0,2,0,0,0,0,0,1,0,3,0,1,2,0,0,1,2,0,0,0,0,0,0,0,0,0,0,0,0,0,1,0,0,0,0,0,0,0,0,0,0],"split_type":[0,0,0,0,0,0,0,0,0,0,0,0,0,0,0,0,0,0,0,0,0,0,0,0,0,0,0,0,0,0,0,0,0,0,0,0,0,0,0,0,0,0,0,0,0,0,0,0,0,0,0,0,0,0,0,0,0,0,0,0,0,0,0,0,0,0,0,0,0,0,0,0,0,0,0,0,0,0,0],"sum_hessian":[4.62E2,3.93E2,6.9E1,2.4E2,1.53E2,4.9E1,2E1,1.48E2,9.2E1,1.33E2,2E1,1.1E1,3.8E1,7.5E1,7.3E1,1.6E1,7.6E1,7.4E1,5.9E1,1E1,1E1,1.6E1,2.2E1,2.6E1,4.9E1,4.7E1,2.6E1,8E0,8E0,5.1E1,2.5E1,5.5E1,1.9E1,1E1,4.9E1,8E0,8E0,8E0,1.4E1,2.3E1,2.6E1,9E0,3.8E1,1.1E1,1.5E1,3.6E1,1.5E1,1.7E1,8E0,1.7E1,3.8E1,1.1E1,8E0,2.9E1,2E1,8E0,1.5E1,9E0,1.7E1,1.3E1,2.3E1,9E0,8E0,8E0,9E0,1.7E1,2.1E1,1E1,1.9E1,8E0,1.2E1,9E0,8E0,1.5E1,8E0,9E0,8E0,1.1E1,8E0],"tree_param":{"num_deleted":"0","num_feature":"10","num_nodes":"79","size_leaf_vector":"1"}},{"base_weights":[2.7026632E1,-2.57612E2,4.5385208E2,-5.258592E2,-5.648704E1,3.4625998E2,9.848077E1,-6.209403E2,-4.2863782E2,-2.0949792E2,5.659139E2,1.3624466E2,5.482931E2,-4.4903543E2,-7.894508E2,-3.6683313E2,-3.1417347E1,-4.6084848E2,-6.788514E1,8.312466E2,-1.048089E1,4.8617148E2,2.4136095E0,1.016358E3,4.272479E2,-1.6769777E1,-2.978509E1,-5.489411E1,-6.56289E2,-2.7778526E1,-2.494174E2,-1.5150279E0,-5.797525E2,1.9438565E2,-3.343817E2,6.557577E2,6.326895E1,-2.7788818E0,4.7773357E1,-2.3326018E2,1.7910861E2,2.7219639E1,7.964156E1,1.5704053E2,6.118043E2,-2.1599703E1,-4.7298557E1,-1.2410146E0,-2.3221958E1,-2.030805E1,-6.3522125E2,-3.4434326E1,3.97559E1,-1.5474261E2,-4.7908884E2,4.646927E1,2.4503794E1,5.2320642E0,-2.82051E1,3.118844E2,-5.2103233E0,3.4531467E2,-7.1485286E0,7.801803E2,7.220215E0,-4.8340794E1,-4.8496515E2,-2.1944073E2,2.8056522E1,-2.3199598E1,1.039656E1,-1.6658052E1,-5.5262787E2,3.8477496E2,7.1607614E0,6.220296E0,3.3250206E1,3.1763807E1,8.678353E2,-5.727994E0,-4.262614E1,-2.395313E1,-2.2169795E0,-3.9647255E1,-2.0950657E1,3.0131323E1,1.2309021E1,3.1932915E1,5.995747E1],"categories":[],"categories_nodes":[],"categories_segments":[],"categories_sizes":[],"default_left":[0,0,0,0,0,0,0,0,0,0,0,0,0,0,0,0,0,0,0,0,0,0,0,0,0,0,0,0,0,0,0,0,0,0,0,0,0,0,0,0,0,0,0,0,0,0,0,0,0,0,0,0,0,0,0,0,0,0,0,0,0,0,0,0,0,0,0,0,0,0,0,0,0,0,0,0,0,0,0,0,0,0,0,0,0,0,0,0,0],"id":7,"left_children":[1,3,5,7,9,11,-1,13,15,17,19,21,23,25,27,29,-1,31,33,35,-1,37,39,41,43,-1,-1,-1,45,-1,47,-1,49,51,53,55,-1,-1,-1,57,59,-1,-1,61,63,-1,-1,-1,-1,-1,65,67,-1,69,71,-1,-1,-1,-1,73,-1,75,-1,77,-1,-1,79,81,-1,-1,-1,-1,83,85,-1,-1,-1,-1,87,-1,-1,-1,-1,-1,-1,-1,-1,-1,-1],"loss_changes":[6.195585E7,1.6479366E7,2.6685424E7,9.44796E5,1.6879762E7,7.944576E6,0E0,1.499446E6,2.74504E5,5.0231275E6,7.082152E6,4.400947E6,5.004834E6,2.005095E5,2.3998E4,4.96943E5,0E0,2.621244E6,6.495271E6,4.65308E5,0E0,4.715417E6,2.915103E6,3.055066E6,3.793666E6,0E0,0E0,0E0,5.97643E5,0E0,8.500261E5,0E0,2.87937E5,5.298091E6,1.1216375E6,2.707755E5,0E0,0E0,0E0,2.494393E6,1.4559218E6,0E0,0E0,1.783295E6,3.67825E6,0E0,0E0,0E0,0E0,0E0,5.16068E5,3.2669235E6,0E0,1.8701272E6,1.946665E5,0E0,0E0,0E0,0E0,3.2358125E5,0E0,1.0220365E6,0E0,2.1962E5,0E0,0E0,1.853678E6,8.595645E5,0E0,0E0,0E0,0E0,1.78337E5,3.30611E5,0E0,0E0,0E0,0E0,6.37676E5,0E0,0E0,0E0,0E0,0E0,0E0,0E0,0E0,0E0,0E0],"parents":[2147483647,0,0,1,1,2,2,3,3,4,4,5,5,7,7,8,8,9,9,10,10,11,11,12,12,13,13,14,14,15,15,17,17,18,18,19,19,21,21,22,22,23,23,24,24,28,28,30,30,32,32,33,33,34,34,35,35,39,39,40,40,43,43,44,44,50,50,51,51,53,53,54,54,59,59,61,61,63,63,66,66,67,67,72,72,73,73,78,78],"right_children":[2,4,6,8,10,12,-1,14,16,18,20,22,24,26,28,30,-1,32,34,36,-1,38,40,42,44,-1,-1,-1,46,-1,48,-1,50,52,54,56,-1,-1,-1,58,60,-1,-1,62,64,-1,-1,-1,-1,-1,66,68,-1,70,72,-1,-1,-1,-1,74,-1,76,-1,78,-1,-1,80,82,-1,-1,-1,-1,84,86,-1,-1,-1,-1,88,-1,-1,-1,-1,-1,-1,-1,-1,-1,-1],"split_conditions":[1.6E1,8E0,2.5911974E9,7.677712E7,7.244032E8,8.772975E7,9.848077E1,1.2E5,6.177473E8,2.514138E7,2.690449E9,4.37386E6,3.675E5,5.074832E6,2.0604976E7,1.7275792E8,-3.1417347E1,2.106472E6,7.86432E5,1.6145851E9,-1.048089E1,1.61142E6,1.6712468E7,1.14662264E8,3.463777E8,-1.6769777E1,-2.978509E1,-5.489411E1,4.4788572E7,-2.7778526E1,2.876038E8,-1.5150279E0,4.761336E6,1.4011344E8,1.5552E6,1.0622147E9,6.326895E1,-2.7788818E0,4.7773357E1,3E4,5.3703896E7,2.7219639E1,7.964156E1,1.08E6,4.32E6,-2.1599703E1,-4.7298557E1,-1.2410146E0,-2.3221958E1,-2.030805E1,2.43E4,4.8E5,3.97559E1,1.6816406E8,3.3187898E8,4.646927E1,2.4503794E1,5.2320642E0,-2.82051E1,2.68203E5,-5.2103233E0,1.9381179E8,-7.1485286E0,1.08E6,7.220215E0,-4.8340794E1,6.75E4,5.2083936E7,2.8056522E1,-2.3199598E1,1.039656E1,-1.6658052E1,5.517797E8,2.6457288E7,7.1607614E0,6.220296E0,3.3250206E1,3.1763807E1,7.090621E8,-5.727994E0,-4.262614E1,-2.395313E1,-2.2169795E0,-3.9647255E1,-2.0950657E1,3.0131323E1,1.2309021E1,3.1932915E1,5.995747E1],"split_indices":[3,3,2,2,2,2,0,0,2,2,2,2,0,2,2,2,0,2,0,2,0,2,2,2,2,0,0,0,2,0,2,0,2,2,0,2,0,0,0,0,2,0,0,0,0,0,0,0,0,0,0,0,0,2,2,0,0,0,0,0,0,2,0,0,0,0,0,2,0,0,0,0,2,2,0,0,0,0,2,0,0,0,0,0,0,0,0,0,0],"split_type":[0,0,0,0,0,0,0,0,0,0,0,0,0,0,0,0,0,0,0,0,0,0,0,0,0,0,0,0,0,0,0,0,0,0,0,0,0,0,0,0,0,0,0,0,0,0,0,0,0,0,0,0,0,0,0,0,0,0,0,0,0,0,0,0,0,0,0,0,0,0,0,0,0,0,0,0,0,0,0,0,0,0,0,0,0,0,0,0,0],"sum_hessian":[5.08E2,3.05E2,2.03E2,1.3E2,1.75E2,1.88E2,1.5E1,6.3E1,6.7E1,1.41E2,3.4E1,9.3E1,9.5E1,3.3E1,3E1,4.6E1,2.1E1,5E1,9.1E1,2.5E1,9E0,2.5E1,6.8E1,1.8E1,7.7E1,1.1E1,2.2E1,1.1E1,1.9E1,2.2E1,2.4E1,1.1E1,3.9E1,4.6E1,4.5E1,1.7E1,8E0,1E1,1.5E1,2.9E1,3.9E1,8E0,1E1,3.2E1,4.5E1,8E0,1.1E1,1E1,1.4E1,9E0,3E1,3.2E1,1.4E1,2.1E1,2.4E1,9E0,8E0,1.3E1,1.6E1,2.6E1,1.3E1,1.9E1,1.3E1,3.3E1,1.2E1,1.1E1,1.9E1,2.4E1,8E0,1.2E1,9E0,8E0,1.6E1,1.8E1,8E0,1E1,9E0,1.1E1,2.2E1,8E0,1.1E1,1.1E1,1.3E1,8E0,8E0,9E0,9E0,9E0,1.3E1],"tree_param":{"num_deleted":"0","num_feature":"10","num_nodes":"89","size_leaf_vector":"1"}},{"base_weights":[-1.6340996E1,-3.5843045E2,1.8203542E3,-5.7324524E2,2.750017E2,8.442349E1,1.573154E2,-7.08024E2,-3.4441052E2,1.05223656E2,4.867822E2,-8.193678E2,-5.287621E2,-4.5747885E2,-1.0325951E2,-2.28607E1,2.1400923E2,2.7165903E2,7.29945E2,-5.164571E1,-3.8523636E1,-6.253997E2,-3.4076193E2,-5.15444E2,-2.8650198E2,-1.5626492E2,4.9285417E0,-5.30303E0,1.9862636E0,6.499365E0,2.4336165E2,6.3566523E0,2.2250032E1,4.855897E1,2.8734015E1,-3.0672356E1,-4.1340485E1,-2.3460257E1,-1.4427948E1,-5.780384E2,-4.1220157E2,-1.9630249E1,-1.2497721E1,-1.9693804E1,-4.781362E1,2.0692827E1,8.809057E0,-2.4319807E1,-3.6514904E1,-1.8174929E1,-2.8648409E1,-6.330814E0,2.2728975E0],"categories":[],"categories_nodes":[],"categories_segments":[],"categories_sizes":[],"default_left":[0,0,0,0,0,0,0,0,0,0,0,0,0,0,0,0,0,0,0,0,0,0,0,0,0,0,0,0,0,0,0,0,0,0,0,0,0,0,0,0,0,0,0,0,0,0,0,0,0,0,0,0,0],"id":8,"left_children":[1,3,5,7,9,-1,-1,11,13,15,17,19,21,23,25,27,29,31,33,-1,-1,35,37,39,41,43,-1,-1,-1,-1,45,-1,-1,-1,-1,-1,-1,-1,-1,47,49,-1,-1,-1,51,-1,-1,-1,-1,-1,-1,-1,-1],"loss_changes":[3.0412816E8,5.5674444E7,2.0808336E7,9.162976E6,3.688169E6,0E0,0E0,3.379056E6,3.088413E6,8.2698256E5,2.207961E6,6.79408E5,1.167648E6,6.25358E5,3.9225562E5,1.1257893E5,6.8609E4,4.28629E5,1.11627E5,0E0,0E0,3.613E4,6.31855E4,1.30088E5,8.121E3,5.7910656E5,0E0,0E0,0E0,0E0,1.945775E5,0E0,0E0,0E0,0E0,0E0,0E0,0E0,0E0,4.077E3,4.6945E4,0E0,0E0,0E0,1.1078651E5,0E0,0E0,0E0,0E0,0E0,0E0,0E0,0E0],"parents":[2147483647,0,0,1,1,2,2,3,3,4,4,7,7,8,8,9,9,10,10,11,11,12,12,13,13,14,14,15,15,16,16,17,17,18,18,21,21,22,22,23,23,24,24,25,25,30,30,39,39,40,40,44,44],"right_children":[2,4,6,8,10,-1,-1,12,14,16,18,20,22,24,26,28,30,32,34,-1,-1,36,38,40,42,44,-1,-1,-1,-1,46,-1,-1,-1,-1,-1,-1,-1,-1,48,50,-1,-1,-1,52,-1,-1,-1,-1,-1,-1,-1,-1],"split_conditions":[3.7753304E7,1.7912048E7,6.033848E7,8.843764E6,1.376E2,8.442349E1,1.573154E2,2.0353827E8,1.376E2,5.84E1,2.5097136E7,1.376E2,1.376E2,1.6816406E8,4.6499974E8,2.291048E7,2.2549012E7,2.1815472E7,2.8795526E7,-5.164571E1,-3.8523636E1,9.214548E8,3.211082E6,1.1788969E7,5.84E1,1.0696232E7,4.9285417E0,-5.30303E0,1.9862636E0,6.499365E0,9.939118E7,6.3566523E0,2.2250032E1,4.855897E1,2.8734015E1,-3.0672356E1,-4.1340485E1,-2.3460257E1,-1.4427948E1,9.377956E6,1.2685076E7,-1.9630249E1,-1.2497721E1,-1.9693804E1,1.1836905E8,2.0692827E1,8.809057E0,-2.4319807E1,-3.6514904E1,-1.8174929E1,-2.8648409E1,-6.330814E0,2.2728975E0],"split_indices":[9,9,9,9,4,0,0,2,4,4,9,4,4,2,2,9,9,9,9,0,0,2,9,9,4,9,0,0,0,0,2,0,0,0,0,0,0,0,0,9,9,0,0,0,2,0,0,0,0,0,0,0,0],"split_type":[0,0,0,0,0,0,0,0,0,0,0,0,0,0,0,0,0,0,0,0,0,0,0,0,0,0,0,0,0,0,0,0,0,0,0,0,0,0,0,0,0,0,0,0,0,0,0,0,0,0,0,0,0],"sum_hessian":[4.82E2,4.07E2,7.5E1,3.04E2,1.03E2,5.5E1,2E1,1.9E2,1.14E2,5.8E1,4.5E1,1.15E2,7.5E1,7.7E1,3.7E1,2.7E1,3.1E1,2.5E1,2E1,7.6E1,3.9E1,4.8E1,2.7E1,5.6E1,2.1E1,2.9E1,8E0,1.2E1,1.5E1,8E0,2.3E1,1.1E1,1.4E1,1.2E1,8E0,2.6E1,2.2E1,1.4E1,1.3E1,3.2E1,2.4E1,1E1,1.1E1,1E1,1.9E1,9E0,1.4E1,1E1,2.2E1,1.3E1,1.1E1,1.1E1,8E0],"tree_param":{"num_deleted":"0","num_feature":"10","num_nodes":"53","size_leaf_vector":"1"}},{"base_weights":[9.79254E1,-3.008238E2,1.7343005E3,-5.4433875E2,2.4350394E2,1.3549985E3,1.5830675E2,-6.649682E2,-3.4581262E2,-4.3825787E1,3.931792E2,3.3151886E1,1.4469398E3,-7.627894E2,-4.9448322E2,-4.4750238E2,-1.5232544E2,-1.3084712E2,7.947194E1,-1.771269E1,4.9781384E2,4.6022842E1,8.877167E1,-4.8954205E1,-5.89564E2,-3.3966805E1,-3.1143484E2,-3.335406E1,-3.8121362E2,-1.8604523E1,-5.8792374E1,-1.3932006E1,-2.443128E0,3.964111E-1,7.947563E0,9.1035646E-1,-2.8526254E0,4.1173346E2,5.2993885E1,-3.8020554E1,-2.3466928E1,-9.037507E0,-3.1140575E1,-2.6041675E2,-2.6348856E1,-1.5796638E1,5.7599422E1,9.830654E0,4.7695627E2,-2.0182491E1,-9.139113E0,4.8542805E0,1.4617324E0,1.9160982E1,3.1716108E1],"categories":[],"categories_nodes":[],"categories_segments":[],"categories_sizes":[],"default_left":[0,0,0,0,0,0,0,0,0,0,0,0,0,0,0,0,0,0,0,0,0,0,0,0,0,0,0,0,0,0,0,0,0,0,0,0,0,0,0,0,0,0,0,0,0,0,0,0,0,0,0,0,0,0,0],"id":9,"left_children":[1,3,5,7,9,11,-1,13,15,17,19,-1,21,23,25,27,29,31,33,35,37,-1,-1,-1,39,-1,41,-1,43,-1,45,-1,-1,-1,-1,-1,-1,47,-1,-1,-1,-1,-1,49,-1,-1,51,-1,53,-1,-1,-1,-1,-1,-1],"loss_changes":[3.1307075E8,5.1297616E7,3.1698112E7,6.164184E6,5.1779695E6,4.218968E6,0E0,2.37452E6,1.958428E6,4.61039E5,3.405306E6,0E0,2.122784E6,9.38952E5,8.6287E5,3.45249E5,5.630925E5,2.3209619E5,7.4161984E4,1.8611441E4,1.874999E6,0E0,0E0,0E0,1.71404E5,0E0,7.22487E5,0E0,2.943745E5,0E0,6.3638706E5,0E0,0E0,0E0,0E0,0E0,0E0,7.72943E5,0E0,0E0,0E0,0E0,0E0,1.24969625E5,0E0,0E0,1.2234992E4,0E0,2.4772E5,0E0,0E0,0E0,0E0,0E0,0E0],"parents":[2147483647,0,0,1,1,2,2,3,3,4,4,5,5,7,7,8,8,9,9,10,10,12,12,13,13,14,14,15,15,16,16,17,17,18,18,19,19,20,20,24,24,26,26,28,28,30,30,37,37,43,43,46,46,48,48],"right_children":[2,4,6,8,10,12,-1,14,16,18,20,-1,22,24,26,28,30,32,34,36,38,-1,-1,-1,40,-1,42,-1,44,-1,46,-1,-1,-1,-1,-1,-1,48,-1,-1,-1,-1,-1,50,-1,-1,52,-1,54,-1,-1,-1,-1,-1,-1],"split_conditions":[3.776963E7,1.496632E7,6.038065E7,7.656048E6,2.1815472E7,5.7E1,1.5830675E2,2.4807149E8,1.6E1,1.6E1,8E0,3.3151886E1,4.431557E7,1.6E1,1.6E1,9.3E1,2.797984E7,8.7E1,2.514138E7,1.804898E8,7.43237E8,4.6022842E1,8.877167E1,-4.8954205E1,5.5629852E7,-3.3966805E1,1.6E2,-3.335406E1,8E0,-1.8604523E1,1.46E2,-1.3932006E1,-2.443128E0,3.964111E-1,7.947563E0,9.1035646E-1,-2.8526254E0,5.5E1,5.2993885E1,-3.8020554E1,-2.3466928E1,-9.037507E0,-3.1140575E1,1.0118784E7,-2.6348856E1,-1.5796638E1,4.893363E8,9.830654E0,1.6E1,-2.0182491E1,-9.139113E0,4.8542805E0,1.4617324E0,1.9160982E1,3.1716108E1],"split_indices":[9,9,9,9,9,1,0,2,3,3,3,0,9,3,3,1,2,1,2,2,2,0,0,0,2,0,1,0,3,0,1,0,0,0,0,0,0,1,0,0,0,0,0,9,0,0,2,0,3,0,0,0,0,0,0],"split_type":[0,0,0,0,0,0,0,0,0,0,0,0,0,0,0,0,0,0,0,0,0,0,0,0,0,0,0,0,0,0,0,0,0,0,0,0,0,0,0,0,0,0,0,0,0,0,0,0,0,0,0,0,0,0,0],"sum_hessian":[4.78E2,3.85E2,9.3E1,2.66E2,1.19E2,6.9E1,2.4E1,1.64E2,1.02E2,4.1E1,7.8E1,8E0,6.1E1,1.02E2,6.2E1,6.6E1,3.6E1,2.4E1,1.7E1,1.6E1,6.2E1,8E0,5.3E1,6.7E1,3.5E1,4E1,2.2E1,2E1,4.6E1,1.2E1,2.4E1,1E1,1.4E1,8E0,9E0,8E0,8E0,5.3E1,9E0,2.4E1,1.1E1,1.4E1,8E0,1.9E1,2.7E1,8E0,1.6E1,1.2E1,4.1E1,9E0,1E1,8E0,8E0,1.5E1,2.6E1],"tree_param":{"num_deleted":"0","num_feature":"10","num_nodes":"55","size_leaf_vector":"1"}},{"base_weights":[4.231856E1,-4.8965887E2,1.9480989E2,-5.5106757E2,-3.8544434E2,1.0323703E2,6.903653E2,-2.3063036E1,-6.881549E2,-1.6439308E1,-2.4143608E1,-4.4761738E1,2.2583002E2,4.1294482E2,8.085419E1,-4.940366E1,-3.297588E1,-1.9764006E2,4.1199924E1,4.505773E1,1.7626477E2,7.552491E2,-2.5257578E1,-2.611877E1,-3.378233E1,2.099839E2,-1.515364E2,2.5120615E1,4.2115247E2,5.8414757E1,5.6688855E2,-1.7970059E2,1.2255661E1,1.11683975E2,2.5073011E1,-2.3253282E2,1.09885E1,-1.1123633E2,9.394174E1,5.4437183E1,2.8875113E2,-1.4089793E0,5.590525E1,1.1467383E-1,-2.6850704E1,1.4206163E1,1.5905318E1,-1.716328E2,-1.778432E1,1.0995265E1,-2.8383075E2,3.5400063E1,1.3659668E1,4.178878E2,7.415178E1,-1.1319322E1,1.0269743E1,-1.56432495E1,-2.1662481E-2,-2.571211E1,-6.6383824E0,-1.3711617E1,9.664092E1,-4.5362563E0,5.9381696E2,-4.277348E0,1.3314427E1,2.938483E2,-1.0476821E2,1.011464E1,5.2431023E1,2.7420023E1,5.275493E0,-5.967699E-1,-1.3153173E1],"categories":[],"categories_nodes":[],"categories_segments":[],"categories_sizes":[],"default_left":[0,0,0,0,0,0,0,0,0,0,0,0,0,0,0,0,0,0,0,0,0,0,0,0,0,0,0,0,0,0,0,0,0,0,0,0,0,0,0,0,0,0,0,0,0,0,0,0,0,0,0,0,0,0,0,0,0,0,0,0,0,0,0,0,0,0,0,0,0,0,0,0,0,0,0],"id":10,"left_children":[1,3,5,7,9,11,13,-1,15,-1,-1,17,19,21,-1,-1,-1,23,25,-1,27,29,-1,31,-1,33,35,37,39,-1,41,43,-1,45,-1,47,-1,49,51,-1,53,-1,-1,-1,-1,-1,55,57,-1,-1,59,-1,61,63,65,-1,-1,-1,-1,-1,-1,-1,67,-1,69,-1,-1,71,73,-1,-1,-1,-1,-1,-1],"loss_changes":[3.89528E7,4.7236E5,1.6855256E7,1.09695E6,1.6127E4,5.743489E6,1.0727058E7,0E0,1.62164E5,0E0,0E0,1.900544E6,4.582148E6,1.2810804E7,0E0,0E0,0E0,3.412329E6,3.0571848E6,0E0,5.911556E6,8.95186E5,0E0,1.3860228E6,0E0,1.04250375E6,1.2586549E6,9.488736E5,3.901348E6,0E0,4.7068805E6,1.1827175E6,0E0,4.547986E5,0E0,1.0925825E5,0E0,1.8179742E6,2.7664055E6,0E0,1.3546448E6,0E0,0E0,0E0,0E0,0E0,7.8146906E5,3.685173E5,0E0,0E0,5.424984E5,0E0,1.2460868E6,2.7516455E6,4.757752E5,0E0,0E0,0E0,0E0,0E0,0E0,0E0,1.8181575E6,0E0,2.8280305E6,0E0,0E0,7.9031725E5,2.623853E5,0E0,0E0,0E0,0E0,0E0,0E0],"parents":[2147483647,0,0,1,1,2,2,3,3,4,4,5,5,6,6,8,8,11,11,12,12,13,13,17,17,18,18,20,20,21,21,23,23,25,25,26,26,27,27,28,28,30,30,31,31,33,33,35,35,37,37,38,38,40,40,46,46,47,47,50,50,52,52,53,53,54,54,62,62,64,64,67,67,68,68],"right_children":[2,4,6,8,10,12,14,-1,16,-1,-1,18,20,22,-1,-1,-1,24,26,-1,28,30,-1,32,-1,34,36,38,40,-1,42,44,-1,46,-1,48,-1,50,52,-1,54,-1,-1,-1,-1,-1,56,58,-1,-1,60,-1,62,64,66,-1,-1,-1,-1,-1,-1,-1,68,-1,70,-1,-1,72,74,-1,-1,-1,-1,-1,-1],"split_conditions":[5.84E1,1.4011344E8,9.6917274E8,1.2E5,3.2318835E8,1.376E2,9.633792E6,-2.3063036E1,2.3963224E7,-1.6439308E1,-2.4143608E1,2.514138E7,9.408E3,2.690449E9,8.085419E1,-4.940366E1,-3.297588E1,9.980008E6,7.86432E5,4.505773E1,1.804898E8,1.2551854E9,-2.5257578E1,1.6875E4,-3.378233E1,1.4011344E8,6.6312256E8,1.283444E7,3.675E5,5.8414757E1,3.145728E6,1.771156E6,1.2255661E1,5.3703896E7,2.5073011E1,1.92E6,1.09885E1,4.761336E6,1.7802236E7,5.4437183E1,1.92E6,-1.4089793E0,5.590525E1,1.1467383E-1,-2.6850704E1,1.4206163E1,8.241083E7,1.6816406E8,-1.778432E1,1.0995265E1,6.687882E6,3.5400063E1,4.1613896E7,7.5E5,4.6499974E8,-1.1319322E1,1.0269743E1,-1.56432495E1,-2.1662481E-2,-2.571211E1,-6.6383824E0,-1.3711617E1,6.02112E5,-4.5362563E0,3.2963424E8,-4.277348E0,1.3314427E1,6.5120044E7,9.67872E5,1.011464E1,5.2431023E1,2.7420023E1,5.275493E0,-5.967699E-1,-1.3153173E1],"split_indices":[4,2,2,0,2,4,0,0,2,0,0,2,0,2,0,0,0,2,0,0,2,2,0,0,0,2,2,2,0,0,0,2,0,2,0,0,0,2,2,0,0,0,0,0,0,0,2,2,0,0,2,0,2,0,2,0,0,0,0,0,0,0,0,0,2,0,0,2,0,0,0,0,0,0,0],"split_type":[0,0,0,0,0,0,0,0,0,0,0,0,0,0,0,0,0,0,0,0,0,0,0,0,0,0,0,0,0,0,0,0,0,0,0,0,0,0,0,0,0,0,0,0,0,0,0,0,0,0,0,0,0,0,0,0,0,0,0,0,0,0,0,0,0,0,0,0,0,0,0,0,0,0,0],"sum_hessian":[4.78E2,1.06E2,3.72E2,6.4E1,4.2E1,3.15E2,5.7E1,3.2E1,3.2E1,1.2E1,3E1,1.43E2,1.72E2,4.2E1,1.5E1,1.1E1,2.1E1,5.1E1,9.2E1,1.3E1,1.59E2,3E1,1.2E1,3.6E1,1.5E1,4.9E1,4.3E1,9.9E1,6E1,1.1E1,1.9E1,2.2E1,1.4E1,3.5E1,1.4E1,3.5E1,8E0,3.3E1,6.6E1,1.1E1,4.9E1,8E0,1.1E1,1.4E1,8E0,1.4E1,2.1E1,2.1E1,1.4E1,1.2E1,2.1E1,8E0,5.8E1,3E1,1.9E1,9E0,1.2E1,1.3E1,8E0,1E1,1.1E1,1.4E1,4.4E1,8E0,2.2E1,1E1,9E0,2.2E1,2.2E1,1E1,1.2E1,1.1E1,1.1E1,1.3E1,9E0],"tree_param":{"num_deleted":"0","num_feature":"10","num_nodes":"75","size_leaf_vector":"1"}},{"base_weights":[1.847438E1,-3.048038E2,1.4695116E3,-4.9931137E2,2.0973189E2,1.265535E3,1.2426359E2,-6.1265063E2,-3.2658093E2,5.2858383E1,4.094728E2,4.1322937E1,1.3322783E3,-6.983019E2,-4.890093E2,-3.8882446E2,-2.1664424E2,-7.40174E0,1.1939213E2,1.9639217E0,5.40541E2,6.461982E1,8.5441414E1,-4.5695595E1,-5.979576E2,-3.2671894E1,-3.2261526E2,-4.46021E2,-2.616765E2,-1.9283915E1,-9.689324E1,-6.1140604E0,2.0925777E2,2.0400143E1,3.717575E1,-3.8837276E1,-2.5965376E1,-4.256359E2,-6.688693E0,-2.949622E1,-2.0609278E1,-1.1314789E1,-1.9447866E1,5.019796E-1,-1.2911311E1,3.3791237E0,-4.8003106E0,1.51285305E1,1.662551E2,-1.599152E1,-3.06812E1,1.3378962E1,4.4374256E0],"categories":[],"categories_nodes":[],"categories_segments":[],"categories_sizes":[],"default_left":[0,0,0,0,0,0,0,0,0,0,0,0,0,0,0,0,0,0,0,0,0,0,0,0,0,0,0,0,0,0,0,0,0,0,0,0,0,0,0,0,0,0,0,0,0,0,0,0,0,0,0,0,0],"id":11,"left_children":[1,3,5,7,9,11,-1,13,15,17,19,-1,21,23,25,27,29,-1,31,-1,33,-1,-1,-1,35,-1,37,39,41,-1,43,45,47,-1,-1,-1,-1,49,-1,-1,-1,-1,-1,-1,-1,-1,-1,-1,51,-1,-1,-1,-1],"loss_changes":[2.3686862E8,4.1438204E7,9.883648E6,5.673064E6,3.550439E6,1.74948E6,0E0,1.564736E6,7.43747E5,7.9522394E5,2.4434525E6,0E0,3.18568E5,4.56488E5,7.63892E5,4.35991E5,6.042615E5,0E0,5.426568E5,0E0,4.73654E5,0E0,0E0,0E0,2.68172E5,0E0,5.0647825E5,1.07746E5,6.2006E4,0E0,3.1984988E5,1.082493E5,1.8496125E4,0E0,0E0,0E0,0E0,1.170365E5,0E0,0E0,0E0,0E0,0E0,0E0,0E0,0E0,0E0,0E0,8.619066E4,0E0,0E0,0E0,0E0],"parents":[2147483647,0,0,1,1,2,2,3,3,4,4,5,5,7,7,8,8,9,9,10,10,12,12,13,13,14,14,15,15,16,16,18,18,20,20,24,24,26,26,27,27,28,28,30,30,31,31,32,32,37,37,48,48],"right_children":[2,4,6,8,10,12,-1,14,16,18,20,-1,22,24,26,28,30,-1,32,-1,34,-1,-1,-1,36,-1,38,40,42,-1,44,46,48,-1,-1,-1,-1,50,-1,-1,-1,-1,-1,-1,-1,-1,-1,-1,52,-1,-1,-1,-1],"split_conditions":[3.776963E7,1.6215352E7,6.038065E7,7.656048E6,1.6E1,4.1852524E7,1.2426359E2,2.4868614E8,1.6E1,2.1815472E7,2.0466826E7,4.1322937E1,1.6E1,3.32321E6,1.6E1,2.0391714E8,1.1788969E7,-7.40174E0,8E0,1.9639217E0,2.4081604E7,6.461982E1,8.5441414E1,-4.5695595E1,1.6E1,-3.2671894E1,4.15009E6,1.1788969E7,1.042717E9,-1.9283915E1,1.2536484E7,1.9432046E8,9.391449E7,2.0400143E1,3.717575E1,-3.8837276E1,-2.5965376E1,7.244032E8,-6.688693E0,-2.949622E1,-2.0609278E1,-1.1314789E1,-1.9447866E1,5.019796E-1,-1.2911311E1,3.3791237E0,-4.8003106E0,1.51285305E1,2.762812E7,-1.599152E1,-3.06812E1,1.3378962E1,4.4374256E0],"split_indices":[9,9,9,9,3,9,0,2,3,9,9,0,3,9,3,2,9,0,3,0,9,0,0,0,3,0,9,9,2,0,9,2,2,0,0,0,0,2,0,0,0,0,0,0,0,0,0,0,9,0,0,0,0],"split_type":[0,0,0,0,0,0,0,0,0,0,0,0,0,0,0,0,0,0,0,0,0,0,0,0,0,0,0,0,0,0,0,0,0,0,0,0,0,0,0,0,0,0,0,0,0,0,0,0,0,0,0,0,0],"sum_hessian":[5.03E2,4.12E2,9.1E1,2.99E2,1.13E2,7.2E1,1.9E1,1.79E2,1.2E2,6.4E1,4.9E1,9E0,6.3E1,1.03E2,7.6E1,7.5E1,4.5E1,1.7E1,4.7E1,1.3E1,3.6E1,2.8E1,3.5E1,5.1E1,5.2E1,5.1E1,2.5E1,5E1,2.5E1,2.2E1,2.3E1,2E1,2.7E1,1.4E1,2.2E1,3.3E1,1.9E1,1.6E1,9E0,2.7E1,2.3E1,1.5E1,1E1,1.3E1,1E1,1.1E1,9E0,1E1,1.7E1,8E0,8E0,9E0,8E0],"tree_param":{"num_deleted":"0","num_feature":"10","num_nodes":"53","size_leaf_vector":"1"}},{"base_weights":[3.6527176E1,-1.5254393E2,1.0444554E3,-2.935897E2,9.1475464E1,5.4444025E2,1.4130662E3,-3.9802313E2,-1.26875595E2,2.0424733E0,6.483063E2,7.3339676E1,8.317727E1,1.1643314E3,9.7423416E1,-3.0854593E2,-5.812056E2,-7.3089745E1,-3.422958E1,1.5546974E2,-1.8853723E2,7.103927E1,-2.226211E0,-2.6569553E1,3.1024874E1,1.02057655E2,3.3215572E1,-3.2315014E1,-2.1035515E2,-3.962279E1,-1.5804119E1,-1.7756331E2,2.5208247E2,-2.1775793E2,4.117266E2,-2.488098E2,1.12648325E1,-3.482948E2,-8.306756E1,-7.154208E0,-2.449489E2,5.694896E1,-1.4551677E1,-2.7669573E1,-9.573587E1,6.7589185E2,6.5058815E1,-3.9116583E2,-1.5356606E2,-1.3636585E1,-3.832057E2,5.6763E1,-2.3032017E1,-2.685376E0,1.0736716E0,-3.1288315E2,-9.547215E1,-3.3274174E-1,-8.322124E0,2.2033637E0,5.557397E1,9.939955E0,-1.6738861E0,-2.956E1,-1.0287617E1,2.5970408E-1,-1.7084423E1,-4.34802E2,-1.2785171E1,-1.8547107E2,3.1120077E1,-4.014297E2,-2.46833E0,9.749165E0,-2.1917137E1,-1.783695E1,-2.9307976E1,-2.188401E1,2.3394692E0,-1.466934E1,-3.1474173E1],"categories":[],"categories_nodes":[],"categories_segments":[],"categories_sizes":[],"default_left":[0,0,0,0,0,0,0,0,0,0,0,0,0,0,0,0,0,0,0,0,0,0,0,0,0,0,0,0,0,0,0,0,0,0,0,0,0,0,0,0,0,0,0,0,0,0,0,0,0,0,0,0,0,0,0,0,0,0,0,0,0,0,0,0,0,0,0,0,0,0,0,0,0,0,0,0,0,0,0,0,0],"id":12,"left_children":[1,3,5,7,9,11,13,15,17,19,21,-1,23,25,-1,27,29,31,-1,33,35,-1,-1,-1,-1,-1,-1,-1,37,-1,-1,39,41,43,45,47,-1,49,51,53,55,-1,-1,-1,57,59,61,63,65,-1,67,69,-1,-1,-1,71,73,-1,-1,-1,-1,-1,-1,-1,-1,-1,-1,75,-1,77,-1,79,-1,-1,-1,-1,-1,-1,-1,-1,-1],"loss_changes":[9.773122E7,1.4895392E7,1.4159856E7,4.719984E6,7.916724E6,1.1832598E7,1.07968E6,2.574302E6,2.620123E6,4.0644488E6,8.739272E6,0E0,5.85811E6,8.486472E6,0E0,2.684535E6,1.504824E6,3.3400348E6,0E0,7.4541025E6,1.477958E6,0E0,0E0,0E0,0E0,0E0,0E0,0E0,1.4459408E6,0E0,0E0,8.479985E5,9.040939E6,9.651996E5,4.1685965E6,6.7209075E5,0E0,6.8329E4,1.9963084E6,2.2921064E4,5.083215E5,0E0,0E0,0E0,9.7756375E4,4.631381E6,2.1426958E5,4.400785E5,7.574987E5,0E0,1.480915E5,3.8147758E6,0E0,0E0,0E0,8.447645E5,1.400805E6,0E0,0E0,0E0,0E0,0E0,0E0,0E0,0E0,0E0,0E0,3.2514E4,0E0,9.663646E5,0E0,4.281995E5,0E0,0E0,0E0,0E0,0E0,0E0,0E0,0E0,0E0],"parents":[2147483647,0,0,1,1,2,2,3,3,4,4,5,5,6,6,7,7,8,8,9,9,10,10,12,12,13,13,15,15,16,16,17,17,19,19,20,20,28,28,31,31,32,32,33,33,34,34,35,35,37,37,38,38,39,39,40,40,44,44,45,45,46,46,47,47,48,48,50,50,51,51,55,55,56,56,67,67,69,69,71,71],"right_children":[2,4,6,8,10,12,14,16,18,20,22,-1,24,26,-1,28,30,32,-1,34,36,-1,-1,-1,-1,-1,-1,-1,38,-1,-1,40,42,44,46,48,-1,50,52,54,56,-1,-1,-1,58,60,62,64,66,-1,68,70,-1,-1,-1,72,74,-1,-1,-1,-1,-1,-1,-1,-1,-1,-1,76,-1,78,-1,80,-1,-1,-1,-1,-1,-1,-1,-1,-1],"split_conditions":[5.17E2,1.6E1,7.82E2,1.61E2,3.47E2,5.76E2,2.494E3,1.46E2,3.87E2,1.56E2,3.8E2,7.3339676E1,6.12E2,9.3E2,9.7423416E1,3.3E1,3.145728E6,3.79E2,-3.422958E1,4.4E1,2.73E2,7.103927E1,-2.226211E0,-2.6569553E1,3.1024874E1,1.02057655E2,3.3215572E1,-3.2315014E1,8E0,-3.962279E1,-1.5804119E1,1.83E2,3.8E2,1.8E1,6.02112E5,1.61E2,1.12648325E1,5.6E1,7.86432E5,3E4,2.73E2,5.694896E1,-1.4551677E1,-2.7669573E1,6.75E4,1.2E5,9.3E1,1.08E6,1.98E2,-1.3636585E1,1.01E2,2.7E5,-2.3032017E1,-2.685376E0,1.0736716E0,7.68E6,3.35E2,-3.3274174E-1,-8.322124E0,2.2033637E0,5.557397E1,9.939955E0,-1.6738861E0,-2.956E1,-1.0287617E1,2.5970408E-1,-1.7084423E1,1.50528E5,-1.2785171E1,6.75E4,3.1120077E1,8E0,-2.46833E0,9.749165E0,-2.1917137E1,-1.783695E1,-2.9307976E1,-2.188401E1,2.3394692E0,-1.466934E1,-3.1474173E1],"split_indices":[1,3,1,1,1,1,1,1,1,1,1,0,1,1,0,1,0,1,0,1,1,0,0,0,0,0,0,0,3,0,0,1,1,1,0,1,0,1,0,0,1,0,0,0,0,0,1,0,1,0,1,0,0,0,0,0,1,0,0,0,0,0,0,0,0,0,0,0,0,0,0,3,0,0,0,0,0,0,0,0,0],"split_type":[0,0,0,0,0,0,0,0,0,0,0,0,0,0,0,0,0,0,0,0,0,0,0,0,0,0,0,0,0,0,0,0,0,0,0,0,0,0,0,0,0,0,0,0,0,0,0,0,0,0,0,0,0,0,0,0,0,0,0,0,0,0,0,0,0,0,0,0,0,0,0,0,0,0,0,0,0,0,0,0,0],"sum_hessian":[5.11E2,4.31E2,8E1,2.73E2,1.58E2,3.5E1,4.5E1,1.67E2,1.06E2,1.37E2,2.1E1,1.3E1,2.2E1,2.6E1,1.9E1,1.14E2,5.3E1,9.6E1,1E1,7.6E1,6.1E1,1.1E1,1E1,1E1,1.2E1,1.2E1,1.4E1,3.1E1,8.3E1,3.9E1,1.4E1,7.3E1,2.3E1,3.1E1,4.5E1,5.3E1,8E0,3.9E1,4.4E1,2.1E1,5.2E1,9E0,1.4E1,9E0,2.2E1,2.5E1,2E1,2E1,3.3E1,1.1E1,2.8E1,3.1E1,1.3E1,8E0,1.3E1,3.5E1,1.7E1,8E0,1.4E1,8E0,1.7E1,9E0,1.1E1,1.2E1,8E0,1.6E1,1.7E1,2E1,8E0,2.1E1,1E1,2.6E1,9E0,9E0,8E0,9E0,1.1E1,1.1E1,1E1,1.4E1,1.2E1],"tree_param":{"num_deleted":"0","num_feature":"10","num_nodes":"81","size_leaf_vector":"1"}},{"base_weights":[-9.559816E0,-2.698708E2,1.4328329E3,-4.444931E2,1.6601228E2,1.1477003E3,1.3097446E2,-5.495958E2,-2.672112E2,-3.939445E1,2.800449E2,3.9760334E1,7.083556E1,-6.436766E2,-3.8852713E2,-3.041187E2,1.997472E0,-8.614553E0,-1.0240618E1,1.758425E2,4.5239746E2,-3.9147587E1,-2.7039865E1,-2.3380737E2,-5.281567E2,-3.7480466E2,-1.9926387E2,2.014454E1,-5.121245E0,4.5928454E0,2.1618909E2,1.5431479E1,3.2363327E1,-2.2042637E1,-1.4117856E2,-5.889287E2,-2.1789E1,-2.8476217E1,-3.3047284E2,-1.5838801E1,-1.0469118E2,-3.05354E1,6.9236584E0,1.736182E2,1.829518E1,-5.32299E0,-1.2072973E1,-3.786296E1,-2.385764E1,-1.4548707E1,-3.8433505E2,6.0622424E-1,-1.4313966E1,5.383871E-1,-4.1435003E0,1.2687926E1,5.3677206E0,-2.6662712E1,-1.6243986E1],"categories":[],"categories_nodes":[],"categories_segments":[],"categories_sizes":[],"default_left":[0,0,0,0,0,0,0,0,0,0,0,0,0,0,0,0,0,0,0,0,0,0,0,0,0,0,0,0,0,0,0,0,0,0,0,0,0,0,0,0,0,0,0,0,0,0,0,0,0,0,0,0,0,0,0,0,0,0,0],"id":13,"left_children":[1,3,5,7,9,11,-1,13,15,17,19,-1,-1,21,23,25,-1,-1,27,29,31,-1,-1,33,35,37,39,41,-1,-1,43,-1,-1,-1,45,47,-1,-1,49,-1,51,53,-1,55,-1,-1,-1,-1,-1,-1,57,-1,-1,-1,-1,-1,-1,-1,-1],"loss_changes":[1.81739E8,3.1280902E7,1.4782464E7,5.312552E6,2.7749538E6,1.076904E6,0E0,2.523E6,1.2461175E6,1.3512294E5,1.285375E6,0E0,0E0,3.07976E5,1.388754E6,6.5908E5,0E0,0E0,8.470451E4,1.7412288E5,4.00811E5,0E0,0E0,4.1939175E5,1.13298E5,1.35447E5,2.6367438E5,1.3425225E5,0E0,0E0,8.8522E4,0E0,0E0,0E0,5.6947656E4,2.289E3,0E0,0E0,9.7241E4,0E0,3.2927784E5,2.9926822E4,0E0,7.462056E4,0E0,0E0,0E0,0E0,0E0,0E0,6.7334E4,0E0,0E0,0E0,0E0,0E0,0E0,0E0,0E0],"parents":[2147483647,0,0,1,1,2,2,3,3,4,4,5,5,7,7,8,8,9,9,10,10,13,13,14,14,15,15,18,18,19,19,20,20,23,23,24,24,25,25,26,26,27,27,30,30,34,34,35,35,38,38,40,40,41,41,43,43,50,50],"right_children":[2,4,6,8,10,12,-1,14,16,18,20,-1,-1,22,24,26,-1,-1,28,30,32,-1,-1,34,36,38,40,42,-1,-1,44,-1,-1,-1,46,48,-1,-1,50,-1,52,54,-1,56,-1,-1,-1,-1,-1,-1,58,-1,-1,-1,-1,-1,-1,-1,-1],"split_conditions":[3.776963E7,1.496632E7,6.033848E7,9.177562E6,2.1815472E7,4.431557E7,1.3097446E2,2.4868614E8,7.090621E8,6.525076E6,1.376E2,3.9760334E1,7.083556E1,6.156712E6,7.090621E8,1.376E2,1.997472E0,-8.614553E0,2.0242984E7,5.84E1,2.5097136E7,-3.9147587E1,-2.7039865E1,5.84E1,3.67392E9,5.828752E6,1.2320528E7,1.9466816E7,-5.121245E0,4.5928454E0,3.3754035E8,1.5431479E1,3.2363327E1,-2.2042637E1,4.9785267E8,4.221362E6,-2.1789E1,-2.8476217E1,6.5717516E7,-1.5838801E1,1.2536484E7,1.7249284E7,6.9236584E0,1.18630136E8,1.829518E1,-5.32299E0,-1.2072973E1,-3.786296E1,-2.385764E1,-1.4548707E1,2.0391714E8,6.0622424E-1,-1.4313966E1,5.383871E-1,-4.1435003E0,1.2687926E1,5.3677206E0,-2.6662712E1,-1.6243986E1],"split_indices":[9,9,9,9,9,9,0,2,2,2,4,0,0,9,2,4,0,0,9,4,9,0,0,4,2,2,9,9,0,0,2,0,0,0,2,9,0,0,2,0,9,9,0,2,0,0,0,0,0,0,2,0,0,0,0,0,0,0,0],"split_type":[0,0,0,0,0,0,0,0,0,0,0,0,0,0,0,0,0,0,0,0,0,0,0,0,0,0,0,0,0,0,0,0,0,0,0,0,0,0,0,0,0,0,0,0,0,0,0,0,0,0,0,0,0,0,0,0,0,0,0],"sum_hessian":[4.82E2,4.09E2,7.3E1,2.92E2,1.17E2,5.6E1,1.7E1,1.82E2,1.1E2,4.2E1,7.5E1,9E0,4.7E1,1.13E2,6.9E1,9.8E1,1.2E1,8E0,3.4E1,4.8E1,2.7E1,9.4E1,1.9E1,3.4E1,3.5E1,5.7E1,4.1E1,2.5E1,9E0,1.5E1,3.3E1,1.1E1,1.6E1,1.2E1,2.2E1,2.3E1,1.2E1,1.3E1,4.4E1,2.2E1,1.9E1,1.7E1,8E0,2.5E1,8E0,1.4E1,8E0,1.5E1,8E0,2E1,2.4E1,1.1E1,8E0,9E0,8E0,1.5E1,1E1,1.2E1,1.2E1],"tree_param":{"num_deleted":"0","num_feature":"10","num_nodes":"59","size_leaf_vector":"1"}},{"base_weights":[-2.9336248E1,-2.7882712E2,1.2652643E3,-4.4534006E2,1.542135E2,1.0393257E3,1.1850941E2,-5.413945E2,-2.7205756E2,1.0861049E2,3.972596E1,7.692399E2,6.988773E1,-6.067733E2,-2.6935007E2,-3.1111545E2,-7.0672104E1,-6.878066E1,2.0589113E2,1.8854994E1,5.650907E1,-6.756809E2,-5.3632965E2,-2.6758184E1,-1.558302E2,-2.1394844E1,-2.4951012E2,-9.400669E0,1.6055975E0,-1.4656131E2,3.7988832E0,3.6933647E1,2.5938818E2,-4.9826196E2,-7.6140234E2,-3.4302555E1,-4.590384E2,-1.9533061E2,-4.2434096E0,-1.7484355E2,-3.1378043E2,-9.063224E1,-1.3695698E1,6.204856E0,-2.6061273E0,1.8810466E2,3.1631613E2,-5.640655E2,-1.7646757E1,-5.0501125E1,-3.515746E1,-2.8822586E1,-1.6439234E1,-1.3386618E1,-8.032186E0,-1.2351534E1,-5.1085124E0,-2.3529953E1,-1.4087853E1,-7.180479E0,-2.7577176E0,1.4421019E1,6.3094406E0,1.3627474E1,2.2124813E1,-2.4078358E1,-3.9699707E1],"categories":[],"categories_nodes":[],"categories_segments":[],"categories_sizes":[],"default_left":[0,0,0,0,0,0,0,0,0,0,0,0,0,0,0,0,0,0,0,0,0,0,0,0,0,0,0,0,0,0,0,0,0,0,0,0,0,0,0,0,0,0,0,0,0,0,0,0,0,0,0,0,0,0,0,0,0,0,0,0,0,0,0,0,0,0,0],"id":14,"left_children":[1,3,5,7,9,11,-1,13,15,17,-1,19,-1,21,23,25,27,29,31,-1,-1,33,35,-1,37,-1,39,-1,-1,41,-1,43,45,47,49,-1,51,53,-1,55,57,59,-1,-1,-1,61,63,65,-1,-1,-1,-1,-1,-1,-1,-1,-1,-1,-1,-1,-1,-1,-1,-1,-1,-1,-1],"loss_changes":[1.5991032E8,2.9993022E7,1.1907552E7,4.846076E6,2.7298855E6,1.918296E6,0E0,3.251464E6,8.353725E5,1.8778875E6,0E0,2.133995E6,0E0,3.85148E5,7.7636475E5,2.3E5,1.7498211E5,4.1673925E5,6.2313075E5,0E0,0E0,7.46056E5,7.035E4,0E0,7.0690375E4,0E0,1.7068325E5,0E0,0E0,1.0356244E5,0E0,1.0782679E5,1.55575E5,1.73713E5,2.8466E5,0E0,1.097075E5,2.2483125E3,0E0,6.0318E4,5.7858E4,1.8361531E4,0E0,0E0,0E0,9.753481E4,5.854375E4,5.6169E4,0E0,0E0,0E0,0E0,0E0,0E0,0E0,0E0,0E0,0E0,0E0,0E0,0E0,0E0,0E0,0E0,0E0,0E0,0E0],"parents":[2147483647,0,0,1,1,2,2,3,3,4,4,5,5,7,7,8,8,9,9,11,11,13,13,14,14,15,15,16,16,17,17,18,18,21,21,22,22,24,24,26,26,29,29,31,31,32,32,33,33,34,34,36,36,37,37,39,39,40,40,41,41,45,45,46,46,47,47],"right_children":[2,4,6,8,10,12,-1,14,16,18,-1,20,-1,22,24,26,28,30,32,-1,-1,34,36,-1,38,-1,40,-1,-1,42,-1,44,46,48,50,-1,52,54,-1,56,58,60,-1,-1,-1,62,64,66,-1,-1,-1,-1,-1,-1,-1,-1,-1,-1,-1,-1,-1,-1,-1,-1,-1,-1,-1],"split_conditions":[3.7753304E7,1.496632E7,6.038065E7,9.177562E6,7.68E6,1.6E1,1.1850941E2,4.32E6,1.92E6,2.1815472E7,3.972596E1,1.728E5,6.988773E1,3.538984E6,8E0,1.1788969E7,7.090621E8,4.8E5,8E0,1.8854994E1,5.650907E1,8E0,6.02112E5,-2.6758184E1,9.633792E6,-2.1394844E1,1.2536484E7,-9.400669E0,1.6055975E0,7.822389E7,3.7988832E0,1.9432046E8,1.6E1,2.7447904E8,1.6E1,-3.4302555E1,1.6E1,1.1625623E9,-4.2434096E0,1.6E1,8E0,2.43E4,-1.3695698E1,6.204856E0,-2.6061273E0,9.939118E7,4.8E5,1.2E5,-1.7646757E1,-5.0501125E1,-3.515746E1,-2.8822586E1,-1.6439234E1,-1.3386618E1,-8.032186E0,-1.2351534E1,-5.1085124E0,-2.3529953E1,-1.4087853E1,-7.180479E0,-2.7577176E0,1.4421019E1,6.3094406E0,1.3627474E1,2.2124813E1,-2.4078358E1,-3.9699707E1],"split_indices":[9,9,9,9,0,3,0,0,0,9,0,0,0,9,3,9,2,0,3,0,0,3,0,0,0,0,9,0,0,2,0,2,3,2,3,0,3,2,0,3,3,0,0,0,0,2,0,0,0,0,0,0,0,0,0,0,0,0,0,0,0,0,0,0,0,0,0],"split_type":[0,0,0,0,0,0,0,0,0,0,0,0,0,0,0,0,0,0,0,0,0,0,0,0,0,0,0,0,0,0,0,0,0,0,0,0,0,0,0,0,0,0,0,0,0,0,0,0,0,0,0,0,0,0,0,0,0,0,0,0,0,0,0,0,0,0,0],"sum_hessian":[4.93E2,4.14E2,7.9E1,2.99E2,1.15E2,6.3E1,1.6E1,1.91E2,1.08E2,1.07E2,8E0,2.6E1,3.7E1,1.53E2,3.8E1,9E1,1.8E1,3.8E1,6.9E1,9E0,1.7E1,7.3E1,8E1,1.3E1,2.5E1,4.4E1,4.6E1,9E0,9E0,2.4E1,1.4E1,1.7E1,5.2E1,2.6E1,4.7E1,4.3E1,3.7E1,1.6E1,9E0,2.3E1,2.3E1,1.6E1,8E0,9E0,8E0,2.5E1,2.7E1,1.8E1,8E0,2.5E1,2.2E1,2.9E1,8E0,8E0,8E0,1.5E1,8E0,8E0,1.5E1,8E0,8E0,1.3E1,1.2E1,1.4E1,1.3E1,1E1,8E0],"tree_param":{"num_deleted":"0","num_feature":"10","num_nodes":"67","size_leaf_vector":"1"}},{"base_weights":[6.066001E0,-2.620311E2,1.2623109E3,-4.2373608E2,1.7801485E2,1.034642E3,1.113285E2,-5.348195E2,-2.5728256E2,-5.061351E1,2.8683383E2,8.2407983E2,6.590909E1,-5.8576385E2,-2.0368538E2,-2.792049E2,2.5610056E0,-1.3690631E2,4.32852E1,1.4368681E2,4.422352E2,2.4307636E1,5.748364E1,-3.7550823E1,-4.9637103E2,-1.6301895E1,-5.6152434E0,-3.7721713E2,-2.2377676E2,-4.729031E0,-1.0371615E1,3.2692018E0,1.393153E0,1.2270083E0,1.954536E2,3.652803E2,3.6222378E1,-3.20001E1,-3.6159708E2,-2.4940027E1,-1.6494825E1,-2.9439444E2,-1.2189125E2,5.8153253E0,1.7281305E1,1.5528986E1,2.6123749E1,-2.6592197E1,-1.2973323E1,-1.2728168E1,-1.8556194E1,-1.3975943E1,-1.6072252E1,2.0530586E0,-3.527205E0],"categories":[],"categories_nodes":[],"categories_segments":[],"categories_sizes":[],"default_left":[0,0,0,0,0,0,0,0,0,0,0,0,0,0,0,0,0,0,0,0,0,0,0,0,0,0,0,0,0,0,0,0,0,0,0,0,0,0,0,0,0,0,0,0,0,0,0,0,0,0,0,0,0,0,0],"id":15,"left_children":[1,3,5,7,9,11,-1,13,15,17,19,21,-1,23,25,27,-1,29,31,33,35,-1,-1,-1,37,-1,-1,39,41,-1,-1,-1,-1,-1,43,45,-1,-1,47,-1,-1,49,51,-1,-1,-1,-1,-1,-1,-1,-1,-1,53,-1,-1],"loss_changes":[1.6468702E8,2.8751954E7,1.0848672E7,5.31702E6,2.7263405E6,4.63824E5,0E0,2.8497E6,8.05199E5,2.976262E5,1.582604E6,1.268906E6,0E0,5.08896E5,1.7907688E5,5.24043E5,0E0,2.9431594E4,3.1719844E3,2.4963056E5,2.615465E5,0E0,0E0,0E0,2.88652E5,0E0,0E0,6.81355E4,4.9653975E5,0E0,0E0,0E0,0E0,0E0,2.4291712E5,1.033005E5,0E0,0E0,1.9079025E5,0E0,0E0,1.150775E4,3.986042E5,0E0,0E0,0E0,0E0,0E0,0E0,0E0,0E0,0E0,4.352375E4,0E0,0E0],"parents":[2147483647,0,0,1,1,2,2,3,3,4,4,5,5,7,7,8,8,9,9,10,10,11,11,13,13,14,14,15,15,17,17,18,18,19,19,20,20,24,24,27,27,28,28,34,34,35,35,38,38,41,41,42,42,52,52],"right_children":[2,4,6,8,10,12,-1,14,16,18,20,22,-1,24,26,28,-1,30,32,34,36,-1,-1,-1,38,-1,-1,40,42,-1,-1,-1,-1,-1,44,46,-1,-1,48,-1,-1,50,52,-1,-1,-1,-1,-1,-1,-1,-1,-1,54,-1,-1],"split_conditions":[3.7753304E7,1.496632E7,6.038065E7,7.656048E6,2.1815472E7,3E1,1.113285E2,7.68E6,7.68E6,2.68203E5,3E1,2.68203E5,6.590909E1,3.538984E6,9.633792E6,6.75E4,2.5610056E0,1.442008E7,9.67872E5,1.5E1,1.92E6,2.4307636E1,5.748364E1,-3.7550823E1,3E1,-1.6301895E1,-5.6152434E0,1.2320528E7,3E1,-4.729031E0,-1.0371615E1,3.2692018E0,1.393153E0,1.2270083E0,2.512264E7,2.56138E7,3.6222378E1,-3.20001E1,6.912E5,-2.4940027E1,-1.6494825E1,6.5717516E7,1.0696232E7,5.8153253E0,1.7281305E1,1.5528986E1,2.6123749E1,-2.6592197E1,-1.2973323E1,-1.2728168E1,-1.8556194E1,-1.3975943E1,6.912E5,2.0530586E0,-3.527205E0],"split_indices":[9,9,9,9,9,5,0,0,0,0,5,0,0,9,0,0,0,2,0,5,0,0,0,0,5,0,0,9,5,0,0,0,0,0,9,9,0,0,0,0,0,2,9,0,0,0,0,0,0,0,0,0,0,0,0],"split_type":[0,0,0,0,0,0,0,0,0,0,0,0,0,0,0,0,0,0,0,0,0,0,0,0,0,0,0,0,0,0,0,0,0,0,0,0,0,0,0,0,0,0,0,0,0,0,0,0,0,0,0,0,0,0,0],"sum_hessian":[4.87E2,4.02E2,8.5E1,2.94E2,1.08E2,6.5E1,2E1,1.75E2,1.19E2,3.5E1,7.3E1,2.4E1,4.1E1,1.51E2,2.4E1,1.11E2,8E0,1.8E1,1.7E1,3.9E1,3.4E1,8E0,1.6E1,8.6E1,6.5E1,1.3E1,1.1E1,3.8E1,7.3E1,9E0,9E0,9E0,8E0,1.2E1,2.7E1,2.6E1,8E0,4.4E1,2.1E1,2.2E1,1.6E1,4.2E1,3.1E1,1.5E1,1.2E1,1.4E1,1.2E1,1.1E1,1E1,1.3E1,2.9E1,1.4E1,1.7E1,8E0,9E0],"tree_param":{"num_deleted":"0","num_feature":"10","num_nodes":"55","size_leaf_vector":"1"}},{"base_weights":[-1.30872965E1,-1.2630616E2,1.0928818E3,-2.5721997E2,9.36327E1,7.4163495E2,8.465837E1,-3.8594138E2,-1.977117E2,-5.0989124E1,4.1931168E2,7.456783E1,3.786787E2,-4.6452618E2,-2.6617993E2,-2.9824695E2,-1.1532115E2,1.27945724E2,-1.9932893E2,1.739351E2,8.4925214E2,1.3540681E1,2.7982992E1,-3.9712033E2,-3.329471E1,-3.5179484E-1,-3.719303E2,-3.4429425E2,-1.1047835E2,1.3400885E1,-1.8802936E2,-2.0299023E2,2.8133786E2,-3.439638E2,-6.1396214E1,2.9540197E1,-7.7264404E-1,3.1746965E1,6.19248E1,-2.6186136E1,-1.2290743E1,-3.5057457E1,-1.014233E1,-1.0297272E1,-3.656628E2,-7.50532E-1,-1.2622312E1,-1.5633038E1,1.8685088E2,-3.3729315E2,3.9776604E1,-8.182874E0,-1.4475965E1,4.455138E2,5.232564E1,-1.2614761E1,-2.4334969E1,-1.26641045E2,8.194649E0,-1.1129921E1,7.3481812E0,-3.8885382E2,-1.5946078E1,2.5772501E1,-8.713579E0,-4.1572165E2,-2.4353317E2,-1.2891457E2,2.4902622E1,1.789175E0,3.949174E1,9.634773E0,-3.8970528E0,8.2356626E-1,-2.1031537E2,-3.1656177E2,-3.1153408E1,-1.3961589E1,-3.1446709E1,-4.2765884E0,-1.946704E1,-1.6486948E1,6.4252573E-1,-1.633889E1,-6.723052E0,-2.6074358E1,-2.5848904E2,-8.9911785E0,-1.8817198E1],"categories":[],"categories_nodes":[],"categories_segments":[],"categories_sizes":[],"default_left":[0,0,0,0,0,0,0,0,0,0,0,0,0,0,0,0,0,0,0,0,0,0,0,0,0,0,0,0,0,0,0,0,0,0,0,0,0,0,0,0,0,0,0,0,0,0,0,0,0,0,0,0,0,0,0,0,0,0,0,0,0,0,0,0,0,0,0,0,0,0,0,0,0,0,0,0,0,0,0,0,0,0,0,0,0,0,0,0,0],"id":16,"left_children":[1,3,5,7,9,11,-1,13,15,17,19,-1,21,23,25,27,29,31,33,35,37,-1,-1,39,-1,-1,41,43,45,47,49,51,53,55,57,-1,59,-1,-1,-1,-1,-1,-1,-1,61,-1,-1,-1,63,65,67,-1,-1,69,71,-1,-1,73,-1,-1,-1,75,-1,-1,-1,77,79,81,-1,-1,-1,-1,-1,-1,83,85,-1,-1,-1,-1,-1,-1,-1,-1,-1,-1,87,-1,-1],"loss_changes":[6.33724E7,1.3240088E7,4.95126E6,2.12977E6,8.12263E6,4.636503E6,0E0,7.23382E5,1.613953E6,3.2106828E6,5.443643E6,0E0,1.4308425E5,1.61659E5,1.04304175E6,7.31478E5,1.04138525E6,2.8490725E6,1.295574E6,2.0483578E6,6.66E5,0E0,0E0,2.646445E5,0E0,0E0,1.1296925E6,1.88377E5,1.954189E5,2.0606804E6,2.4276428E6,1.6628375E4,1.405423E6,2.1382425E5,4.8042794E5,0E0,6.0789506E5,0E0,0E0,0E0,0E0,0E0,0E0,0E0,2.39985E4,0E0,0E0,0E0,2.3190415E6,2.14956E5,1.9592501E6,0E0,0E0,2.120869E6,2.4191953E5,0E0,0E0,3.2114262E5,0E0,0E0,0E0,3.32273E5,0E0,0E0,0E0,3.5534025E5,3.1837012E5,4.5904462E5,0E0,0E0,0E0,0E0,0E0,0E0,8.169144E4,1.45698E5,0E0,0E0,0E0,0E0,0E0,0E0,0E0,0E0,0E0,0E0,1.26655375E5,0E0,0E0],"parents":[2147483647,0,0,1,1,2,2,3,3,4,4,5,5,7,7,8,8,9,9,10,10,12,12,13,13,14,14,15,15,16,16,17,17,18,18,19,19,20,20,23,23,26,26,27,27,28,28,29,29,30,30,31,31,32,32,33,33,34,34,36,36,44,44,48,48,49,49,50,50,53,53,54,54,57,57,61,61,65,65,66,66,67,67,74,74,75,75,86,86],"right_children":[2,4,6,8,10,12,-1,14,16,18,20,-1,22,24,26,28,30,32,34,36,38,-1,-1,40,-1,-1,42,44,46,48,50,52,54,56,58,-1,60,-1,-1,-1,-1,-1,-1,-1,62,-1,-1,-1,64,66,68,-1,-1,70,72,-1,-1,74,-1,-1,-1,76,-1,-1,-1,78,80,82,-1,-1,-1,-1,-1,-1,84,86,-1,-1,-1,-1,-1,-1,-1,-1,-1,-1,88,-1,-1],"split_conditions":[7.82E2,1.6E1,2.494E3,2.3963224E7,2.73E2,9.3E2,8.465837E1,1.77E2,8E0,1.14E2,9.67872E5,7.456783E1,6.15862E8,3.7632E4,1.923176E6,2.08E2,6.02112E5,3.7E1,7.5E5,3.8E2,8.174634E8,1.3540681E1,2.7982992E1,2.43E4,-3.329471E1,-3.5179484E-1,1.2288E4,1.2E5,3.3187898E8,4.5E1,3.145728E6,1.50528E5,6.02112E5,6.576128E6,7.68E6,2.9540197E1,1.1928796E7,3.1746965E1,6.19248E1,-2.6186136E1,-1.2290743E1,-3.5057457E1,-1.014233E1,-1.0297272E1,1.6E2,-7.50532E-1,-1.2622312E1,-1.5633038E1,1.14E2,1.61E2,2.33E2,-8.182874E0,-1.4475965E1,3.500959E7,1.9381179E8,-1.2614761E1,-2.4334969E1,1.9432046E8,8.194649E0,-1.1129921E1,7.3481812E0,1.56E2,-1.5946078E1,2.5772501E1,-8.713579E0,9.3E1,2.33E2,7.68E6,2.4902622E1,1.789175E0,3.949174E1,9.634773E0,-3.8970528E0,8.2356626E-1,2.1675E6,3.4E1,-3.1153408E1,-1.3961589E1,-3.1446709E1,-4.2765884E0,-1.946704E1,-1.6486948E1,6.4252573E-1,-1.633889E1,-6.723052E0,-2.6074358E1,1.8733918E8,-8.9911785E0,-1.8817198E1],"split_indices":[1,3,1,2,1,1,0,1,3,1,0,0,2,0,2,1,0,1,0,1,2,0,0,0,0,0,0,0,2,1,0,0,0,2,0,0,2,0,0,0,0,0,0,0,1,0,0,0,1,1,1,0,0,2,2,0,0,2,0,0,0,1,0,0,0,1,1,0,0,0,0,0,0,0,0,1,0,0,0,0,0,0,0,0,0,0,2,0,0],"split_type":[0,0,0,0,0,0,0,0,0,0,0,0,0,0,0,0,0,0,0,0,0,0,0,0,0,0,0,0,0,0,0,0,0,0,0,0,0,0,0,0,0,0,0,0,0,0,0,0,0,0,0,0,0,0,0,0,0,0,0,0,0,0,0,0,0,0,0,0,0,0,0,0,0,0,0,0,0,0,0,0,0,0,0,0,0,0,0,0,0],"sum_hessian":[5.04E2,4.58E2,4.6E1,2.87E2,1.71E2,2.5E1,2.1E1,8.9E1,1.98E2,1.19E2,5.2E1,9E0,1.6E1,5.2E1,3.7E1,8.8E1,1.1E2,5.4E1,6.5E1,3.4E1,1.8E1,8E0,8E0,3.5E1,1.7E1,1.1E1,2.6E1,7E1,1.8E1,4E1,7E1,1.7E1,3.7E1,3.1E1,3.4E1,1.1E1,2.3E1,9E0,9E0,2.6E1,9E0,1.1E1,1.5E1,9E0,6.1E1,1E1,8E0,1.5E1,2.5E1,4.2E1,2.8E1,9E0,8E0,2.1E1,1.6E1,1.3E1,1.8E1,2.6E1,8E0,9E0,1.4E1,4.6E1,1.5E1,1.4E1,1.1E1,2.1E1,2.1E1,2E1,8E0,8E0,1.3E1,8E0,8E0,1E1,1.6E1,3.3E1,1.3E1,1E1,1.1E1,8E0,1.3E1,9E0,1.1E1,8E0,8E0,8E0,2.5E1,1.1E1,1.4E1],"tree_param":{"num_deleted":"0","num_feature":"10","num_nodes":"89","size_leaf_vector":"1"}},{"base_weights":[-1.3211436E1,-1.3315453E2,1.0521475E3,-2.5458716E2,5.853815E1,7.685908E2,9.040869E1,-3.1450452E2,-8.694251E1,-7.7857704E1,3.956291E2,7.3011536E1,5.422082E2,-3.3358163E2,-5.9841056E0,1.5314897E2,-1.868477E2,7.293534E1,-1.7084743E2,-2.7130263E0,4.938731E2,1.7596962E1,4.5045967E1,-2.628853E1,-3.0432513E2,-3.0734518E0,1.5946781E1,-3.282158E2,-2.1041542E1,-1.7141978E2,4.897172E2,-2.545197E2,1.17551674E2,6.846252E2,3.444068E2,-1.3529236E2,-3.7321335E2,-6.5283866E0,-2.8039553E1,8.2753315E0,-1.0624384E1,-1.9411623E1,1.3099916E-1,3.6508877E1,1.6292873E1,-3.0755872E2,-1.7830318E2,9.737094E0,2.829267E0,2.1044792E1,5.402717E1,2.3947263E0,3.6054432E1,-2.8549005E2,3.4709328E1,-4.2845615E2,-2.9184326E2,-9.949678E0,-3.4972302E2,-1.2122707E0,-1.7580961E1,-2.3718908E1,-1.0704701E1,-1.061421E1,1.3423771E1,-3.19454E2,-4.7016058E2,-5.788579E0,-3.7278403E2,-2.480801E1,-1.4989884E1,-1.2760894E1,-2.2117367E1,-3.8191666E1,-4.066405E2,-2.8722495E2,-2.6835924E1,-6.1982613E0,-2.9625349E1,-2.1959753E1,-9.720904E0],"categories":[],"categories_nodes":[],"categories_segments":[],"categories_sizes":[],"default_left":[0,0,0,0,0,0,0,0,0,0,0,0,0,0,0,0,0,0,0,0,0,0,0,0,0,0,0,0,0,0,0,0,0,0,0,0,0,0,0,0,0,0,0,0,0,0,0,0,0,0,0,0,0,0,0,0,0,0,0,0,0,0,0,0,0,0,0,0,0,0,0,0,0,0,0,0,0,0,0,0,0],"id":17,"left_children":[1,3,5,7,9,11,-1,13,15,17,19,-1,21,23,-1,25,27,29,31,-1,33,-1,-1,-1,35,-1,-1,37,39,41,43,45,47,49,51,53,55,-1,-1,-1,-1,-1,-1,-1,-1,57,59,-1,-1,-1,-1,-1,-1,61,63,65,67,-1,69,-1,-1,-1,-1,-1,-1,71,73,-1,75,-1,-1,-1,-1,-1,77,79,-1,-1,-1,-1,-1],"loss_changes":[6.313684E7,1.0350224E7,5.965976E6,2.70485E6,7.9849635E6,3.082658E6,0E0,7.72282E5,1.7796218E6,1.7512138E6,2.196059E6,0E0,1.1619335E6,5.00706E5,0E0,5.656465E5,1.2119581E6,4.972401E6,1.888007E6,0E0,9.33162E5,0E0,0E0,0E0,1.696162E6,0E0,0E0,8.80808E5,6.885232E5,8.7813994E5,3.472365E5,1.87708E5,5.397986E4,1.009906E6,2.0711755E6,1.1589329E6,3.51439E5,0E0,0E0,0E0,0E0,0E0,0E0,0E0,0E0,1.3526725E5,5.2303456E5,0E0,0E0,0E0,0E0,0E0,0E0,2.2329912E5,9.828704E5,1.27103E5,6.7818125E5,0E0,6.7221E4,0E0,0E0,0E0,0E0,0E0,0E0,3.8878125E4,2.33298E5,0E0,1.12233E5,0E0,0E0,0E0,0E0,0E0,1.0026145E6,1.4386275E5,0E0,0E0,0E0,0E0,0E0],"parents":[2147483647,0,0,1,1,2,2,3,3,4,4,5,5,7,7,8,8,9,9,10,10,12,12,13,13,15,15,16,16,17,17,18,18,20,20,24,24,27,27,28,28,29,29,30,30,31,31,32,32,33,33,34,34,35,35,36,36,45,45,46,46,53,53,54,54,55,55,56,56,58,58,65,65,66,66,68,68,74,74,75,75],"right_children":[2,4,6,8,10,12,-1,14,16,18,20,-1,22,24,-1,26,28,30,32,-1,34,-1,-1,-1,36,-1,-1,38,40,42,44,46,48,50,52,54,56,-1,-1,-1,-1,-1,-1,-1,-1,58,60,-1,-1,-1,-1,-1,-1,62,64,66,68,-1,70,-1,-1,-1,-1,-1,-1,72,74,-1,76,-1,-1,-1,-1,-1,78,80,-1,-1,-1,-1,-1],"split_conditions":[7.82E2,1.376E2,2.724E3,2.73E2,2.73E2,9.3E2,9.040869E1,7.68E6,3.8E2,6.6E1,1.6875E4,7.3011536E1,2.37E3,3.3E1,-5.9841056E0,1.2E5,4.7E2,4.4E1,3.145728E6,-2.7130263E0,3.8E2,1.7596962E1,4.5045967E1,-2.628853E1,8.7E1,-3.0734518E0,1.5946781E1,5.84E1,5.76E2,2.8E1,3.675E5,1.61E2,1.56E2,3.35E2,5.17E2,5.84E1,1.61E2,-6.5283866E0,-2.8039553E1,8.2753315E0,-1.0624384E1,-1.9411623E1,1.3099916E-1,3.6508877E1,1.6292873E1,9.3E1,1.9E2,9.737094E0,2.829267E0,2.1044792E1,5.402717E1,2.3947263E0,3.6054432E1,4.5E1,4.5E1,1.728E5,1.83E2,-9.949678E0,7.5E5,-1.2122707E0,-1.7580961E1,-2.3718908E1,-1.0704701E1,-1.061421E1,1.3423771E1,1.46E2,1.3E2,-5.788579E0,5.84E1,-2.480801E1,-1.4989884E1,-1.2760894E1,-2.2117367E1,-3.8191666E1,1.54E2,2.08E2,-2.6835924E1,-6.1982613E0,-2.9625349E1,-2.1959753E1,-9.720904E0],"split_indices":[1,4,1,1,1,1,0,0,1,1,0,0,1,1,0,0,1,1,0,0,1,0,0,0,1,0,0,4,1,1,0,1,1,1,1,4,1,0,0,0,0,0,0,0,0,1,1,0,0,0,0,0,0,1,1,0,1,0,0,0,0,0,0,0,0,1,1,0,4,0,0,0,0,0,1,1,0,0,0,0,0],"split_type":[0,0,0,0,0,0,0,0,0,0,0,0,0,0,0,0,0,0,0,0,0,0,0,0,0,0,0,0,0,0,0,0,0,0,0,0,0,0,0,0,0,0,0,0,0,0,0,0,0,0,0,0,0,0,0,0,0,0,0,0,0,0,0,0,0,0,0,0,0,0,0,0,0,0,0,0,0,0,0,0,0],"sum_hessian":[4.92E2,4.43E2,4.9E1,2.71E2,1.72E2,3.3E1,1.6E1,1.99E2,7.2E1,1.23E2,4.9E1,9E0,2.4E1,1.82E2,1.7E1,2.1E1,5.1E1,4.7E1,7.6E1,9E0,4E1,1.3E1,1.1E1,3.3E1,1.49E2,8E0,1.3E1,2.7E1,2.4E1,3E1,1.7E1,5.9E1,1.7E1,1.6E1,2.4E1,4.4E1,1.05E2,1.2E1,1.5E1,1.2E1,1.2E1,1.5E1,1.5E1,9E0,8E0,3.3E1,2.6E1,9E0,8E0,8E0,8E0,1.2E1,1.2E1,2.3E1,2.1E1,6E1,4.5E1,9E0,2.4E1,1.2E1,1.4E1,9E0,1.4E1,1E1,1.1E1,1.9E1,4.1E1,1.4E1,3.1E1,1.1E1,1.3E1,9E0,1E1,8E0,3.3E1,1.8E1,1.3E1,9E0,2.4E1,9E0,9E0],"tree_param":{"num_deleted":"0","num_feature":"10","num_nodes":"81","size_leaf_vector":"1"}},{"base_weights":[-2.8204512E1,-2.1348773E2,1.1437894E3,-3.6760898E2,1.633197E2,5.187644E1,9.883012E1,-4.4889413E2,-2.2702109E2,-4.9779778E1,2.626802E2,-5.327952E2,-3.9629443E2,-2.603297E2,-1.2136652E2,-1.0766993E2,2.3317633E0,1.6208719E2,3.6943436E2,-5.7547076E2,-2.4231367E1,-2.5930992E1,-3.1174182E2,-3.0567587E2,-1.8732112E2,-3.271133E1,-1.4826834E1,-8.7875805E0,-3.8105698E0,4.2577214E0,1.9693658E2,3.095707E2,3.103371E1,-4.3289484E2,-3.7259857E1,-2.6521412E1,-2.5471133E2,-2.1586185E1,-1.5915997E1,-1.6957664E1,-1.3791241E2,-5.8201046E0,2.668855E0,1.4285431E1,1.5294762E2,2.098087E2,2.5053204E1,-1.5926862E1,-3.09007E1,-2.0550838E2,-1.892236E1,-3.378336E0,-1.2018041E1,1.341131E1,2.3528295E0,1.459549E1,7.874085E0,-1.5480708E1,-5.411436E0],"categories":[],"categories_nodes":[],"categories_segments":[],"categories_sizes":[],"default_left":[0,0,0,0,0,0,0,0,0,0,0,0,0,0,0,0,0,0,0,0,0,0,0,0,0,0,0,0,0,0,0,0,0,0,0,0,0,0,0,0,0,0,0,0,0,0,0,0,0,0,0,0,0,0,0,0,0,0,0],"id":18,"left_children":[1,3,5,7,9,-1,-1,11,13,15,17,19,21,23,25,27,-1,29,31,33,-1,-1,35,37,39,41,-1,-1,-1,-1,43,45,-1,47,-1,-1,49,-1,-1,-1,51,-1,-1,-1,53,55,-1,-1,-1,57,-1,-1,-1,-1,-1,-1,-1,-1,-1],"loss_changes":[1.03390824E8,2.3928466E7,7.56292E6,3.234984E6,2.5539162E6,0E0,0E0,6.0088E5,3.519985E5,2.0739831E5,8.206945E5,9.4644E4,3.59238E5,2.14215E5,3.24376E5,3.414825E4,0E0,1.21634E5,2.20079E5,1.66858E5,0E0,0E0,2.72599E5,2.075E2,1.3574988E5,1.0027495E5,0E0,0E0,0E0,0E0,2.9376375E4,2.8673225E5,0E0,1.37616E5,0E0,0E0,5.9207E4,0E0,0E0,0E0,1.2568247E5,0E0,0E0,0E0,1.5739853E5,2.45385E4,0E0,0E0,0E0,1.3996944E5,0E0,0E0,0E0,0E0,0E0,0E0,0E0,0E0,0E0],"parents":[2147483647,0,0,1,1,2,2,3,3,4,4,7,7,8,8,9,9,10,10,11,11,12,12,13,13,14,14,15,15,17,17,18,18,19,19,22,22,23,23,24,24,25,25,30,30,31,31,33,33,36,36,40,40,44,44,45,45,49,49],"right_children":[2,4,6,8,10,-1,-1,12,14,16,18,20,22,24,26,28,-1,30,32,34,-1,-1,36,38,40,42,-1,-1,-1,-1,44,46,-1,48,-1,-1,50,-1,-1,-1,52,-1,-1,-1,54,56,-1,-1,-1,58,-1,-1,-1,-1,-1,-1,-1,-1,-1],"split_conditions":[4.431557E7,1.6215352E7,6.038065E7,9.177562E6,2.1815472E7,5.187644E1,9.883012E1,2.9526216E7,3.1541866E8,1.6E1,1.6E1,4.980362E6,1.6E1,1.6E1,1.2536484E7,9.391449E7,2.3317633E0,8E0,5.4075315E8,8E0,-2.4231367E1,-2.5930992E1,2.265354E6,5.828752E6,2.941792E6,1.6E1,-1.4826834E1,-8.7875805E0,-3.8105698E0,4.2577214E0,3.515786E7,2.8087872E7,3.103371E1,1.681418E6,-3.7259857E1,-2.6521412E1,5.409856E6,-2.1586185E1,-1.5915997E1,-1.6957664E1,4.2755668E7,-5.8201046E0,2.668855E0,1.4285431E1,2.8795526E7,2.4081604E7,2.5053204E1,-1.5926862E1,-3.09007E1,3.719912E6,-1.892236E1,-3.378336E0,-1.2018041E1,1.341131E1,2.3528295E0,1.459549E1,7.874085E0,-1.5480708E1,-5.411436E0],"split_indices":[9,9,9,9,9,0,0,2,2,3,3,9,3,3,9,2,0,3,2,3,0,0,9,2,2,3,0,0,0,0,2,9,0,9,0,0,9,0,0,0,2,0,0,0,9,9,0,0,0,9,0,0,0,0,0,0,0,0,0],"split_type":[0,0,0,0,0,0,0,0,0,0,0,0,0,0,0,0,0,0,0,0,0,0,0,0,0,0,0,0,0,0,0,0,0,0,0,0,0,0,0,0,0,0,0,0,0,0,0,0,0,0,0,0,0,0,0,0,0,0,0],"sum_hessian":[4.74E2,4.1E2,6.4E1,2.91E2,1.19E2,4.6E1,1.8E1,1.83E2,1.08E2,3.8E1,8.1E1,6.7E1,1.16E2,8.1E1,2.7E1,2.3E1,1.5E1,4.3E1,3.8E1,4.6E1,2.1E1,7E1,4.6E1,4.8E1,3.3E1,1.7E1,1E1,1E1,1.3E1,1.3E1,3E1,3E1,8E0,1.7E1,2.9E1,1.1E1,3.5E1,1.2E1,3.6E1,9E0,2.4E1,9E0,8E0,1.2E1,1.8E1,1.8E1,1.2E1,8E0,9E0,2.3E1,1.2E1,1.2E1,1.2E1,1E1,8E0,1E1,8E0,1.4E1,9E0],"tree_param":{"num_deleted":"0","num_feature":"10","num_nodes":"59","size_leaf_vector":"1"}},{"base_weights":[2.9109844E1,-2.4974811E2,1.2495862E2,-1.0990562E1,-2.7718216E2,2.5088894E0,2.2124716E2,-2.0219559E1,-2.4362273E2,-1.0647044E2,1.0455904E2,3.6979546E1,1.8999103E2,-1.2711359E1,-1.8451557E1,4.4548664E0,-3.1142697E2,1.966416E1,4.438192E1,1.2011999E2,4.3153665E2,-5.8963657E1,9.1820694E1,-2.4538713E1,-1.2508028E1,-4.7651863E0,1.275549E2,-1.7322496E1,1.509157E2,3.0532874E2,3.30217E1,1.7545485E0,-1.2054773E1,2.165473E0,9.309672E0,1.8116789E1,5.316504E1,2.3871878E1,1.0350962E2,3.1153143E1,-2.846909E0,-6.5972743E0,1.1366617E1,-4.968494E0,1.1873207E2,1.2991287E1,9.442443E1,-2.9615636E0,1.27918175E2,1.7893192E1,7.822455E1,1.695775E0,1.2755106E1,-6.479503E0,5.199339E1,8.400125E0,-6.9707346E0],"categories":[],"categories_nodes":[],"categories_segments":[],"categories_sizes":[],"default_left":[0,0,0,0,0,0,0,0,0,0,0,0,0,0,0,0,0,0,0,0,0,0,0,0,0,0,0,0,0,0,0,0,0,0,0,0,0,0,0,0,0,0,0,0,0,0,0,0,0,0,0,0,0,0,0,0,0],"id":19,"left_children":[1,3,5,-1,7,9,11,-1,13,15,17,-1,19,-1,-1,21,23,-1,25,27,29,31,33,-1,-1,-1,35,-1,37,39,-1,-1,-1,-1,-1,-1,41,-1,43,-1,-1,-1,-1,-1,45,-1,47,-1,49,-1,51,53,-1,-1,55,-1,-1],"loss_changes":[1.2326177E7,1.43135E5,4.043589E6,0E0,1.03693E5,1.7015786E6,2.374013E6,0E0,3.472375E4,1.6837674E6,1.0982255E6,0E0,2.986031E6,0E0,0E0,2.7690406E5,1.8656325E5,0E0,6.8366025E5,1.8623071E6,5.19411E5,3.9085388E5,7.24962E4,0E0,0E0,0E0,5.1874675E5,0E0,1.58628E6,1.9116218E6,0E0,0E0,0E0,0E0,0E0,0E0,7.122424E5,0E0,3.354335E5,0E0,0E0,0E0,0E0,0E0,2.469995E5,0E0,4.3033138E5,0E0,6.120601E5,0E0,6.168415E5,2.2237552E5,0E0,0E0,4.4807897E5,0E0,0E0],"parents":[2147483647,0,0,1,1,2,2,4,4,5,5,6,6,8,8,9,9,10,10,12,12,15,15,16,16,18,18,19,19,20,20,21,21,22,22,26,26,28,28,29,29,36,36,38,38,44,44,46,46,48,48,50,50,51,51,54,54],"right_children":[2,4,6,-1,8,10,12,-1,14,16,18,-1,20,-1,-1,22,24,-1,26,28,30,32,34,-1,-1,-1,36,-1,38,40,-1,-1,-1,-1,-1,-1,42,-1,44,-1,-1,-1,-1,-1,46,-1,48,-1,50,-1,52,54,-1,-1,56,-1,-1],"split_conditions":[8E0,1.2E5,1.6E1,-1.0990562E1,3.28683E5,3.072E5,9.408E3,-2.0219559E1,4.32E6,1.2E5,6.912E5,3.6979546E1,2.1675E6,-1.2711359E1,-1.8451557E1,2.43E4,1.728E5,1.966416E1,1.5552E6,1.6875E4,9.633792E6,1.2288E4,4.9152E4,-2.4538713E1,-1.2508028E1,-4.7651863E0,2.1675E6,-1.7322496E1,3E4,4.32E6,3.30217E1,1.7545485E0,-1.2054773E1,2.165473E0,9.309672E0,1.8116789E1,4.32E6,2.3871878E1,6.75E4,3.1153143E1,-2.846909E0,-6.5972743E0,1.1366617E1,-4.968494E0,1.728E5,1.2991287E1,2.7E5,-2.9615636E0,6.02112E5,1.7893192E1,1.47E6,7.5E5,1.2755106E1,-6.479503E0,9.67872E5,8.400125E0,-6.9707346E0],"split_indices":[3,0,3,0,0,0,0,0,0,0,0,0,0,0,0,0,0,0,0,0,0,0,0,0,0,0,0,0,0,0,0,0,0,0,0,0,0,0,0,0,0,0,0,0,0,0,0,0,0,0,0,0,0,0,0,0,0],"split_type":[0,0,0,0,0,0,0,0,0,0,0,0,0,0,0,0,0,0,0,0,0,0,0,0,0,0,0,0,0,0,0,0,0,0,0,0,0,0,0,0,0,0,0,0,0,0,0,0,0,0,0,0,0,0,0,0,0],"sum_hessian":[4.59E2,1.17E2,3.42E2,3.9E1,7.8E1,1.51E2,1.91E2,2.2E1,5.6E1,7.3E1,7.8E1,1.2E1,1.79E2,4.5E1,1.1E1,4.8E1,2.5E1,1.5E1,6.3E1,1.4E2,3.9E1,2.8E1,2E1,1E1,1.5E1,2.5E1,3.8E1,9E0,1.31E2,2.2E1,1.7E1,1.8E1,1E1,1.2E1,8E0,1E1,2.8E1,1.9E1,1.12E2,1.3E1,9E0,1.3E1,1.5E1,8E0,1.04E2,1.8E1,8.6E1,1.6E1,7E1,1.4E1,5.6E1,3.7E1,1.9E1,1.1E1,2.6E1,1.7E1,9E0],"tree_param":{"num_deleted":"0","num_feature":"10","num_nodes":"57","size_leaf_vector":"1"}},{"base_weights":[-6.604077E0,-1.4490967E2,1.9752943E2,-2.6834943E2,-5.361059E1,1.3922737E2,8.375213E2,-6.3064933E0,-2.8684827E2,-1.0075034E2,3.19117E2,1.8865602E1,2.5202756E2,6.183561E1,3.0002035E1,-3.42421E2,-2.1999765E2,-3.3614844E2,-5.1464092E1,7.1724076E0,3.1604422E1,2.231357E2,-5.1439365E1,3.1586943E1,1.9268544E2,-2.701422E2,-3.820034E2,-1.0759079E2,-3.4123645E2,-1.5426191E1,-2.2729929E1,7.2899146E0,-7.718761E1,-1.6073236E1,3.483499E1,-2.6806558E2,2.8701735E1,3.5557735E1,3.1228204E2,-2.0172802E1,-2.1330037E2,-2.9451216E1,-3.236033E2,1.4958338E1,-1.4438468E1,-1.397384E1,-2.2077003E1,-3.4150146E2,-2.7852537E1,-2.2253624E1,-8.671943E0,7.353841E1,-9.692745E0,1.4947319E2,-7.157738E0,4.7193015E2,1.396222E2,-7.4380317E0,-1.5951228E1,-1.3737663E1,-2.5338778E1,1.9251324E0,-2.8488934E-1,-1.3284917E1,-2.4888784E1,1.83928E1,-6.2011543E1,1.88768E1,1.6135042E1,-2.6027255E0,2.2473478E1,1.4862236E1,3.3926353E1,1.9184808E0,1.657517E1,3.7766256E0,-1.4434117E2,1.29828E2,-9.103941E0,-1.5998717E2,1.2374418E2,-2.2288626E2,2.086165E0,1.2071767E1,-3.5502154E-1,-2.1445544E0,-1.4067823E1,-1.8500528E1,1.8064653E1,-8.915513E0,-1.5831714E1,7.7522655E0,-1.076162E1],"categories":[],"categories_nodes":[],"categories_segments":[],"categories_sizes":[],"default_left":[0,0,0,0,0,0,0,0,0,0,0,0,0,0,0,0,0,0,0,0,0,0,0,0,0,0,0,0,0,0,0,0,0,0,0,0,0,0,0,0,0,0,0,0,0,0,0,0,0,0,0,0,0,0,0,0,0,0,0,0,0,0,0,0,0,0,0,0,0,0,0,0,0,0,0,0,0,0,0,0,0,0,0,0,0,0,0,0,0,0,0,0,0],"id":20,"left_children":[1,3,5,7,9,11,13,-1,15,17,19,21,23,-1,-1,25,27,29,31,-1,-1,33,35,-1,37,39,41,43,45,-1,-1,-1,47,-1,-1,49,51,53,55,-1,57,-1,59,61,-1,-1,-1,63,65,-1,-1,67,-1,69,-1,71,73,-1,-1,-1,-1,-1,-1,-1,-1,-1,75,77,-1,-1,-1,-1,-1,-1,-1,79,81,83,-1,85,87,89,-1,-1,-1,-1,-1,91,-1,-1,-1,-1,-1],"loss_changes":[1.4399123E7,3.4116745E6,7.56984E6,3.49973E5,3.1245218E6,2.574843E6,6.90679E5,0E0,3.51902E5,1.804197E6,8.1394625E5,1.3470698E6,1.593788E6,0E0,0E0,7.13235E4,7.1283E5,1.27725E3,6.062765E5,0E0,0E0,4.6893805E6,1.2229402E6,0E0,1.548627E6,3.580025E4,1.0662E5,5.2256128E5,1.054575E4,0E0,0E0,0E0,1.4900819E6,0E0,0E0,2.0267512E5,4.684793E5,6.879879E5,1.2296545E6,0E0,5.3805E4,0E0,1.71557E5,6.310496E3,0E0,0E0,0E0,7.8774E4,1.173508E6,0E0,0E0,4.751898E5,0E0,1.033264E6,0E0,4.33255E5,3.6374547E5,0E0,0E0,0E0,0E0,0E0,0E0,0E0,0E0,0E0,4.880135E5,7.026554E5,0E0,0E0,0E0,0E0,0E0,0E0,0E0,1.0217608E6,5.7440525E5,2.3490638E5,0E0,2.1395156E5,8.05608E5,5.481725E4,0E0,0E0,0E0,0E0,0E0,4.8145388E5,0E0,0E0,0E0,0E0,0E0],"parents":[2147483647,0,0,1,1,2,2,3,3,4,4,5,5,6,6,8,8,9,9,10,10,11,11,12,12,15,15,16,16,17,17,18,18,21,21,22,22,24,24,25,25,26,26,27,27,28,28,32,32,35,35,36,36,37,37,38,38,40,40,42,42,43,43,47,47,48,48,51,51,53,53,55,55,56,56,66,66,67,67,75,75,76,76,77,77,79,79,80,80,81,81,87,87],"right_children":[2,4,6,8,10,12,14,-1,16,18,20,22,24,-1,-1,26,28,30,32,-1,-1,34,36,-1,38,40,42,44,46,-1,-1,-1,48,-1,-1,50,52,54,56,-1,58,-1,60,62,-1,-1,-1,64,66,-1,-1,68,-1,70,-1,72,74,-1,-1,-1,-1,-1,-1,-1,-1,-1,76,78,-1,-1,-1,-1,-1,-1,-1,80,82,84,-1,86,88,90,-1,-1,-1,-1,-1,92,-1,-1,-1,-1,-1],"split_conditions":[1.376E2,5.84E1,2.30624E9,5.074832E6,1.0544922E9,8.772975E7,4.802905E9,-6.3064933E0,1.6404608E8,1.6875E4,4.32E6,3.605123E6,3.28683E5,6.183561E1,3.0002035E1,1.2E5,6.177473E8,2.106472E6,3E4,7.1724076E0,3.1604422E1,1.61142E6,9.353876E6,3.1586943E1,3.3929437E8,1.6875E4,2.3963224E7,3.145728E6,7.5E5,-1.5426191E1,-2.2729929E1,7.2899146E0,2.514138E7,-1.6073236E1,3.483499E1,2.43E4,6.02112E5,1.08E6,3.145728E6,-2.0172802E1,2.1218644E7,-2.9451216E1,1.0237241E8,2.7447904E8,-1.4438468E1,-1.397384E1,-2.2077003E1,1.2E5,4.2755668E7,-2.2253624E1,-8.671943E0,2.7E5,-9.692745E0,2.0353827E8,-7.157738E0,9.67872E5,1.0544922E9,-7.4380317E0,-1.5951228E1,-1.3737663E1,-2.5338778E1,1.9251324E0,-2.8488934E-1,-1.3284917E1,-2.4888784E1,1.83928E1,9.67872E5,1.2E5,1.6135042E1,-2.6027255E0,2.2473478E1,1.4862236E1,3.3926353E1,1.9184808E0,1.657517E1,1.0237241E8,7.090621E8,2.6911696E7,-9.103941E0,2.68203E5,4.8E5,3.3505366E8,2.086165E0,1.2071767E1,-3.5502154E-1,-2.1445544E0,-1.4067823E1,1.6374389E8,1.8064653E1,-8.915513E0,-1.5831714E1,7.7522655E0,-1.076162E1],"split_indices":[4,4,2,2,2,2,2,0,2,0,0,2,0,0,0,0,2,2,0,0,0,2,2,0,2,0,2,0,0,0,0,0,2,0,0,0,0,0,0,0,2,0,2,2,0,0,0,0,2,0,0,0,0,2,0,0,2,0,0,0,0,0,0,0,0,0,0,0,0,0,0,0,0,0,0,2,2,2,0,0,0,2,0,0,0,0,0,2,0,0,0,0,0],"split_type":[0,0,0,0,0,0,0,0,0,0,0,0,0,0,0,0,0,0,0,0,0,0,0,0,0,0,0,0,0,0,0,0,0,0,0,0,0,0,0,0,0,0,0,0,0,0,0,0,0,0,0,0,0,0,0,0,0,0,0,0,0,0,0,0,0,0,0,0,0,0,0,0,0,0,0,0,0,0,0,0,0,0,0,0,0,0,0,0,0,0,0,0,0],"sum_hessian":[5.08E2,3.03E2,2.05E2,1.28E2,1.75E2,1.89E2,1.6E1,1.4E1,1.14E2,1.56E2,1.9E1,9.2E1,9.7E1,8E0,8E0,6E1,5.4E1,2.6E1,1.3E2,1.1E1,8E0,2.3E1,6.9E1,1.5E1,8.2E1,2.4E1,3.6E1,2.9E1,2.5E1,1.4E1,1.2E1,1.6E1,1.14E2,1E1,1.3E1,1.8E1,5.1E1,3.6E1,4.6E1,8E0,1.6E1,9E0,2.7E1,1.6E1,1.3E1,9E0,1.6E1,1.7E1,9.7E1,8E0,1E1,4.2E1,9E0,2.1E1,1.5E1,2.3E1,2.3E1,8E0,8E0,1.7E1,1E1,8E0,8E0,9E0,8E0,8E0,8.9E1,3.4E1,8E0,1.2E1,9E0,9E0,1.4E1,1.4E1,9E0,5E1,3.9E1,2.1E1,1.3E1,2.1E1,2.9E1,2.7E1,1.2E1,1.3E1,8E0,9E0,1.2E1,1.7E1,1.2E1,1.3E1,1.4E1,9E0,8E0],"tree_param":{"num_deleted":"0","num_feature":"10","num_nodes":"93","size_leaf_vector":"1"}},{"base_weights":[-3.9271402E0,-2.1080852E2,1.0815454E3,-3.4708057E2,1.3054926E2,8.675419E2,9.794841E1,-4.2385153E2,-2.0262376E2,-3.4918224E1,2.2193164E2,7.613E2,6.1912117E1,-4.6398013E2,-3.4323618E2,-2.277755E2,-2.1618752E0,-6.271179E0,-1.3265297E1,1.4313104E2,2.269469E1,5.66651E1,3.8746895E1,-3.888381E2,-3.1054255E1,-2.45983E1,-1.6818346E1,-2.9443442E2,-1.7887003E2,1.5204844E1,-4.4944043E0,3.0365942E1,2.0561249E2,-2.5526398E1,-1.7416939E1,-2.0178484E1,-1.1838485E1,-1.414142E2,-1.505504E1,3.5369706E0,-1.8451784E0,-2.8351982E0,6.1845345E0,2.2995686E2,7.492164E0,-2.073998E2,-2.4292295E0,7.843132E0,1.6329075E1,-1.4282819E1,-7.920353E0],"categories":[],"categories_nodes":[],"categories_segments":[],"categories_sizes":[],"default_left":[0,0,0,0,0,0,0,0,0,0,0,0,0,0,0,0,0,0,0,0,0,0,0,0,0,0,0,0,0,0,0,0,0,0,0,0,0,0,0,0,0,0,0,0,0,0,0,0,0,0,0],"id":21,"left_children":[1,3,5,7,9,11,-1,13,15,17,19,21,-1,23,25,27,-1,-1,29,31,-1,-1,-1,33,-1,-1,-1,35,37,39,-1,41,43,-1,-1,-1,-1,45,-1,-1,-1,-1,-1,47,-1,49,-1,-1,-1,-1,-1],"loss_changes":[1.0240464E8,1.7861524E7,7.99868E6,2.9528E6,1.6710389E6,3.7174E5,0E0,4.16574E5,3.950065E5,6.1887414E4,8.895985E5,1.54884E5,0E0,4.1049E5,1.486655E5,2.211735E5,0E0,0E0,5.9625035E4,3.460427E5,0E0,0E0,0E0,1.39195E5,0E0,0E0,0E0,9.26935E4,1.1703675E5,5.1351844E4,0E0,1.1982767E5,2.99585E4,0E0,0E0,0E0,0E0,2.3441456E5,0E0,0E0,0E0,0E0,0E0,7.396975E4,0E0,2.674925E4,0E0,0E0,0E0,0E0,0E0],"parents":[2147483647,0,0,1,1,2,2,3,3,4,4,5,5,7,7,8,8,9,9,10,10,11,11,13,13,14,14,15,15,18,18,19,19,23,23,27,27,28,28,29,29,31,31,32,32,37,37,43,43,45,45],"right_children":[2,4,6,8,10,12,-1,14,16,18,20,22,-1,24,26,28,-1,-1,30,32,-1,-1,-1,34,-1,-1,-1,36,38,40,-1,42,44,-1,-1,-1,-1,46,-1,-1,-1,-1,-1,48,-1,50,-1,-1,-1,-1,-1],"split_conditions":[4.431557E7,1.496632E7,6.033848E7,9.177562E6,2.1815472E7,4.8282272E8,9.794841E1,1.6E1,6.298492E8,4.761336E6,1.6E1,1.3681972E7,6.1912117E1,8E0,2.623754E6,1.1699889E7,-2.1618752E0,-6.271179E0,1.9569804E7,8E0,2.269469E1,5.66651E1,3.8746895E1,2.6616328E8,-3.1054255E1,-2.45983E1,-1.6818346E1,1.6E1,1.2685076E7,1.7731254E8,-4.4944043E0,2.56138E7,3.08638E7,-2.5526398E1,-1.7416939E1,-2.0178484E1,-1.1838485E1,5.2083936E7,-1.505504E1,3.5369706E0,-1.8451784E0,-2.8351982E0,6.1845345E0,4.281414E7,7.492164E0,5.72961E6,-2.4292295E0,7.843132E0,1.6329075E1,-1.4282819E1,-7.920353E0],"split_indices":[9,9,9,9,9,2,0,3,2,2,3,2,0,3,9,9,0,0,9,3,0,0,0,2,0,0,0,3,9,2,0,9,9,0,0,0,0,2,0,0,0,0,0,2,0,2,0,0,0,0,0],"split_type":[0,0,0,0,0,0,0,0,0,0,0,0,0,0,0,0,0,0,0,0,0,0,0,0,0,0,0,0,0,0,0,0,0,0,0,0,0,0,0,0,0,0,0,0,0,0,0,0,0,0,0],"sum_hessian":[4.54E2,3.82E2,7.2E1,2.73E2,1.09E2,5.5E1,1.7E1,1.77E2,9.6E1,3.9E1,7E1,3.9E1,1.6E1,1.15E2,6.2E1,8.3E1,1.3E1,8E0,3.1E1,4.9E1,2.1E1,9E0,3E1,5.9E1,5.6E1,2.2E1,4E1,3.3E1,5E1,2.2E1,9E0,1.8E1,3.1E1,3.5E1,2.4E1,1.9E1,1.4E1,3.6E1,1.4E1,1.1E1,1.1E1,9E0,9E0,2.2E1,9E0,2.1E1,1.5E1,9E0,1.3E1,1.2E1,9E0],"tree_param":{"num_deleted":"0","num_feature":"10","num_nodes":"51","size_leaf_vector":"1"}},{"base_weights":[3.7418206E0,-1.9096617E2,1.0117396E3,-3.056036E2,1.1575631E2,7.942487E2,1.5746074E3,-3.8749005E2,-1.7003693E2,4.8618652E1,2.2649483E2,6.646769E2,5.4794247E1,7.020671E1,1.1187886E2,-4.4837244E2,-1.8811436E2,-2.4767874E2,-1.2472136E2,-4.885337E0,8.270593E1,1.6221063E2,3.0319537E2,4.2292492E1,2.3178938E1,-4.687293E2,-1.6441921E1,-1.118057E2,-1.6133274E1,-1.0041005E1,-2.693082E2,-8.959697E1,-1.2869098E1,-1.376765E1,1.483724E2,1.2475203E1,2.5931702E0,1.0957667E1,2.182017E1,-3.7328665E2,-5.1478796E2,-1.2574602E1,-5.3192802E1,-1.9130672E1,-1.2239947E1,-1.2166822E2,5.3062525E0,-3.2175717E0,1.4945425E0,7.5713394E1,2.1657768E2,-2.4891441E2,-2.6112846E1,-3.733007E1,-3.9232202E2,-4.9568748E-1,-5.112205E0,-2.1245932E2,-3.6673462E1,6.8578706E0,1.1707975E0,7.469661E0,1.6278969E1,-1.7332415E1,-9.321542E0,-2.6278334E1,-3.046737E2,-7.512026E0,-1.4896814E1,-6.129666E0,3.8837569E0,-2.0572655E1,-1.155354E1],"categories":[],"categories_nodes":[],"categories_segments":[],"categories_sizes":[],"default_left":[0,0,0,0,0,0,0,0,0,0,0,0,0,0,0,0,0,0,0,0,0,0,0,0,0,0,0,0,0,0,0,0,0,0,0,0,0,0,0,0,0,0,0,0,0,0,0,0,0,0,0,0,0,0,0,0,0,0,0,0,0,0,0,0,0,0,0,0,0,0,0,0,0],"id":22,"left_children":[1,3,5,7,9,11,13,15,17,19,21,23,-1,-1,-1,25,27,29,31,-1,33,35,37,-1,-1,39,-1,41,-1,-1,43,45,-1,47,49,-1,-1,-1,-1,51,53,-1,55,-1,-1,57,-1,-1,-1,59,61,63,-1,-1,65,-1,-1,67,69,-1,-1,-1,-1,-1,-1,-1,71,-1,-1,-1,-1,-1,-1],"loss_changes":[9.577437E7,1.441658E7,8.420448E6,3.242234E6,8.216774E5,5.16516E5,3.7374E5,2.161274E6,3.7020475E5,3.282966E5,1.57905E5,3.02205E5,0E0,0E0,0E0,3.41264E5,2.7727612E5,1.96755E4,2.321575E5,0E0,3.631422E5,1.4521906E5,7.87595E4,0E0,0E0,3.52934E5,0E0,1.481909E5,0E0,0E0,3.616525E4,3.3619856E5,0E0,4.0931043E4,1.52097E5,0E0,0E0,0E0,0E0,3.068365E5,1.019982E6,0E0,2.727525E4,0E0,0E0,3.626133E5,0E0,0E0,0E0,4.002921E4,5.9323688E4,3.53995E4,0E0,0E0,9.48085E4,0E0,0E0,5.1138312E4,1.9264917E5,0E0,0E0,0E0,0E0,0E0,0E0,0E0,3.9760375E4,0E0,0E0,0E0,0E0,0E0,0E0],"parents":[2147483647,0,0,1,1,2,2,3,3,4,4,5,5,6,6,7,7,8,8,9,9,10,10,11,11,15,15,16,16,17,17,18,18,20,20,21,21,22,22,25,25,27,27,30,30,31,31,33,33,34,34,39,39,40,40,42,42,45,45,49,49,50,50,51,51,54,54,57,57,58,58,66,66],"right_children":[2,4,6,8,10,12,14,16,18,20,22,24,-1,-1,-1,26,28,30,32,-1,34,36,38,-1,-1,40,-1,42,-1,-1,44,46,-1,48,50,-1,-1,-1,-1,52,54,-1,56,-1,-1,58,-1,-1,-1,60,62,64,-1,-1,66,-1,-1,68,70,-1,-1,-1,-1,-1,-1,-1,72,-1,-1,-1,-1,-1,-1],"split_conditions":[4.1852524E7,1.6215352E7,6.033848E7,8.843764E6,2.56138E7,2.304593E8,6.845277E7,2.1675E6,6.75E4,2.43E4,1.376E2,1.1836905E8,5.4794247E1,7.020671E1,1.1187886E2,6.633209E6,9.002107E8,1.61142E6,1.2536484E7,-4.885337E0,2.0466826E7,2.4807149E8,4.8E5,4.2292492E1,2.3178938E1,5.84E1,-1.6441921E1,5.84E1,-1.6133274E1,-1.0041005E1,1.1788969E7,7.2323686E8,-1.2869098E1,1.9466816E7,1.376E2,1.2475203E1,2.5931702E0,1.0957667E1,2.182017E1,2.136106E6,1.376E2,-1.2574602E1,2.623754E6,-1.9130672E1,-1.2239947E1,1.1010142E7,5.3062525E0,-3.2175717E0,1.4945425E0,9.939118E7,8.134304E7,2.9526216E7,-2.6112846E1,-3.733007E1,2.623754E6,-4.9568748E-1,-5.112205E0,2.514138E7,1.376E2,6.8578706E0,1.1707975E0,7.469661E0,1.6278969E1,-1.7332415E1,-9.321542E0,-2.6278334E1,5.9139732E7,-7.512026E0,-1.4896814E1,-6.129666E0,3.8837569E0,-2.0572655E1,-1.155354E1],"split_indices":[9,9,9,9,9,2,9,0,0,0,4,2,0,0,0,9,2,2,9,0,9,2,0,0,0,4,0,4,0,0,9,2,0,9,4,0,0,0,0,9,4,0,9,0,0,9,0,0,0,2,2,2,0,0,9,0,0,2,4,0,0,0,0,0,0,0,2,0,0,0,0,0,0],"split_type":[0,0,0,0,0,0,0,0,0,0,0,0,0,0,0,0,0,0,0,0,0,0,0,0,0,0,0,0,0,0,0,0,0,0,0,0,0,0,0,0,0,0,0,0,0,0,0,0,0,0,0,0,0,0,0,0,0,0,0,0,0,0,0,0,0,0,0,0,0,0,0,0,0],"sum_hessian":[4.86E2,4.08E2,7.8E1,2.97E2,1.11E2,5.8E1,2E1,1.84E2,1.13E2,7E1,4.1E1,3.4E1,2.4E1,1.2E1,8E0,1.4E2,4.4E1,4E1,7.3E1,1.4E1,5.6E1,2.4E1,1.7E1,2.6E1,8E0,1.23E2,1.7E1,2.5E1,1.9E1,1.1E1,2.9E1,5.5E1,1.8E1,2.3E1,3.3E1,1.6E1,8E0,8E0,9E0,4.3E1,8E1,8E0,1.7E1,1.2E1,1.7E1,4.7E1,8E0,1.1E1,1.2E1,1.7E1,1.6E1,1.8E1,2.5E1,3.7E1,4.3E1,8E0,9E0,2.2E1,2.5E1,9E0,8E0,8E0,8E0,1E1,8E0,2.3E1,2E1,9E0,1.3E1,1.5E1,1E1,1.2E1,8E0],"tree_param":{"num_deleted":"0","num_feature":"10","num_nodes":"73","size_leaf_vector":"1"}},{"base_weights":[1.0494325E1,-8.093058E1,9.070132E2,-1.1105493E2,3.716479E2,6.851056E2,7.304789E1,-1.5699396E2,6.827112E1,1.0894911E2,4.991794E1,5.8222145E1,4.3158994E2,-2.1575453E2,-5.8153366E1,3.7108376E1,-7.541547E1,8.3998165E0,2.8552048E0,1.2988373E1,3.461562E1,-2.7492828E2,-1.5835274E2,2.230929E1,-1.3895924E2,-1.9793612E1,-2.4282738E1,-2.9686832E2,-1.7866063E2,4.2961006E0,-1.8961177E2,-1.5102675E2,1.6224907E2,-2.2030917E2,-4.2629993E1,-1.5062376E2,2.9110904E2,-2.5345645E2,-3.5949203E2,8.648803E-1,-1.6854282E1,-1.5598126E2,-3.322834E2,-1.5030653E1,-2.3476963E0,3.585183E2,-6.836323E0,-2.9091394E2,-4.553971E0,2.7032988E1,-6.8930783E0,-2.4901111E2,-2.8826199E0,2.9777466E1,-7.179295E-1,-3.1330472E2,-1.4733981E2,-3.9464117E2,-1.3109194E1,-8.33417E1,-1.9850058E2,-2.6775232E1,-1.0623882E1,5.6008127E-2,3.266977E1,-1.2596404E1,-2.1207863E1,2.2025023E0,7.617757E-1,3.6956306E0,-3.8401285E2,3.441699E0,-4.559799E0,-2.4103674E2,-2.7820778E1,-2.5774941E0,-1.4869139E1,-2.6771912E1,-1.7582438E1,4.8356037E0,-1.8749013E2,-2.775004E2,-8.17508E1,-3.223621E1,-1.21306305E1,-5.6164956E0,-1.7604069E1,-1.2562338E1,-7.437347E0,-1.18800955E1,-3.211753E2,-2.4372253E-1,-1.0123946E1,-2.5300377E1,-9.917811E0],"categories":[],"categories_nodes":[],"categories_segments":[],"categories_sizes":[],"default_left":[0,0,0,0,0,0,0,0,0,0,0,0,0,0,0,0,0,0,0,0,0,0,0,0,0,0,0,0,0,0,0,0,0,0,0,0,0,0,0,0,0,0,0,0,0,0,0,0,0,0,0,0,0,0,0,0,0,0,0,0,0,0,0,0,0,0,0,0,0,0,0,0,0,0,0,0,0,0,0,0,0,0,0,0,0,0,0,0,0,0,0,0,0,0,0],"id":23,"left_children":[1,3,5,7,9,11,-1,13,15,17,-1,-1,19,21,23,-1,25,-1,-1,-1,-1,27,29,31,33,35,-1,37,39,-1,41,43,45,47,49,51,53,55,57,-1,-1,59,61,-1,-1,63,-1,65,-1,67,-1,69,71,-1,-1,73,75,77,-1,79,81,-1,-1,-1,-1,-1,-1,-1,-1,-1,83,-1,-1,85,-1,-1,-1,-1,-1,-1,87,89,91,-1,-1,-1,-1,-1,-1,-1,93,-1,-1,-1,-1],"loss_changes":[4.162923E7,6.326379E6,2.801876E6,3.5777995E6,3.6258028E6,2.064907E6,0E0,1.991189E6,7.3496215E6,3.561011E4,0E0,0E0,5.170055E5,6.90147E5,8.4834125E5,0E0,1.3648619E6,0E0,0E0,0E0,0E0,1.68733E5,8.2751575E5,1.62544E6,4.9997275E5,2.606401E6,0E0,1.37248E5,4.7984644E5,0E0,4.23184E5,3.4746E5,2.0756471E6,3.27746E5,1.6757206E5,6.5339575E5,1.2854489E6,2.904355E5,6.123675E4,0E0,0E0,2.3672075E5,2.6206388E5,0E0,0E0,1.6061032E6,0E0,4.72565E4,0E0,2.0814688E3,0E0,1.1641495E6,9.403173E4,0E0,0E0,2.8020975E5,2.2381306E5,6.84925E3,0E0,5.709844E5,4.4769812E5,0E0,0E0,0E0,0E0,0E0,0E0,0E0,0E0,0E0,4.5365425E5,0E0,0E0,1.9506088E5,0E0,0E0,0E0,0E0,0E0,0E0,6.6038125E3,2.973125E4,1.5733128E5,0E0,0E0,0E0,0E0,0E0,0E0,0E0,2.18538E5,0E0,0E0,0E0,0E0],"parents":[2147483647,0,0,1,1,2,2,3,3,4,4,5,5,7,7,8,8,9,9,12,12,13,13,14,14,16,16,21,21,22,22,23,23,24,24,25,25,27,27,28,28,30,30,31,31,32,32,33,33,34,34,35,35,36,36,37,37,38,38,41,41,42,42,45,45,47,47,49,49,51,51,52,52,55,55,56,56,57,57,59,59,60,60,70,70,73,73,80,80,81,81,82,82,90,90],"right_children":[2,4,6,8,10,12,-1,14,16,18,-1,-1,20,22,24,-1,26,-1,-1,-1,-1,28,30,32,34,36,-1,38,40,-1,42,44,46,48,50,52,54,56,58,-1,-1,60,62,-1,-1,64,-1,66,-1,68,-1,70,72,-1,-1,74,76,78,-1,80,82,-1,-1,-1,-1,-1,-1,-1,-1,-1,84,-1,-1,86,-1,-1,-1,-1,-1,-1,88,90,92,-1,-1,-1,-1,-1,-1,-1,94,-1,-1,-1,-1],"split_conditions":[7.82E2,9.633792E6,2.724E3,3.79E2,1.4985682E9,9.3E2,7.304789E1,1.6E1,3.8E2,1.69E2,4.991794E1,5.8222145E1,2.37E3,1.0237241E8,1.45E2,3.7108376E1,1.8616364E9,8.3998165E0,2.8552048E0,1.2988373E1,3.461562E1,3.28683E5,1.2531862E8,4.4E1,7.5E5,4.0536784E8,-2.4282738E1,6.75E4,4.4788572E7,4.2961006E0,1.5698065E9,2.7E1,6.912E5,1.92E2,1.83E2,4.9152E4,5.5E2,2.43E4,1.6E2,8.648803E-1,-1.6854282E1,1.46E2,3.2498995E9,-1.5030653E1,-2.3476963E0,3.500959E7,-6.836323E0,1.4532056E7,-4.553971E0,2.843198E8,-6.8930783E0,3.22884E6,3.28683E5,2.9777466E1,-7.179295E-1,1.83E2,3E4,8E0,-1.3109194E1,6.912E5,1.77E2,-2.6775232E1,-1.0623882E1,5.6008127E-2,3.266977E1,-1.2596404E1,-2.1207863E1,2.2025023E0,7.617757E-1,3.6956306E0,1.2288E4,3.441699E0,-4.559799E0,9.67016E5,-2.7820778E1,-2.5774941E0,-1.4869139E1,-2.6771912E1,-1.7582438E1,4.8356037E0,2.581749E8,8E0,4.3054176E8,-3.223621E1,-1.21306305E1,-5.6164956E0,-1.7604069E1,-1.2562338E1,-7.437347E0,-1.18800955E1,1.47E6,-2.4372253E-1,-1.0123946E1,-2.5300377E1,-9.917811E0],"split_indices":[1,0,1,1,2,1,0,3,1,1,0,0,1,2,1,0,2,0,0,0,0,0,2,1,0,2,0,0,2,0,2,1,0,1,1,0,1,0,1,0,0,1,2,0,0,2,0,2,0,2,0,2,0,0,0,1,0,3,0,0,1,0,0,0,0,0,0,0,0,0,0,0,0,2,0,0,0,0,0,0,2,3,2,0,0,0,0,0,0,0,0,0,0,0,0],"split_type":[0,0,0,0,0,0,0,0,0,0,0,0,0,0,0,0,0,0,0,0,0,0,0,0,0,0,0,0,0,0,0,0,0,0,0,0,0,0,0,0,0,0,0,0,0,0,0,0,0,0,0,0,0,0,0,0,0,0,0,0,0,0,0,0,0,0,0,0,0,0,0,0,0,0,0,0,0,0,0,0,0,0,0,0,0,0,0,0,0,0,0,0,0,0,0],"sum_hessian":[5.06E2,4.6E2,4.6E1,4.32E2,2.8E1,3E1,1.6E1,3.44E2,8.8E1,1.9E1,9E0,1.2E1,1.8E1,2.15E2,1.29E2,1.7E1,7.1E1,1.1E1,8E0,9E0,9E0,1.04E2,1.11E2,6.5E1,6.4E1,6.2E1,9E0,8.3E1,2.1E1,1.3E1,9.8E1,2.9E1,3.6E1,3.4E1,3E1,4.4E1,1.8E1,5.2E1,3.1E1,8E0,1.3E1,8.1E1,1.7E1,1.4E1,1.5E1,2.1E1,1.5E1,2.2E1,1.2E1,1.6E1,1.4E1,2.6E1,1.8E1,1E1,8E0,3.2E1,2E1,2.3E1,8E0,3.1E1,5E1,8E0,9E0,8E0,1.3E1,1.3E1,9E0,8E0,8E0,8E0,1.8E1,1E1,8E0,2.4E1,8E0,1.1E1,9E0,1.1E1,1.2E1,1.2E1,1.9E1,2.9E1,2.1E1,8E0,1E1,8E0,1.6E1,1.1E1,8E0,1.3E1,1.6E1,1.2E1,9E0,8E0,8E0],"tree_param":{"num_deleted":"0","num_feature":"10","num_nodes":"95","size_leaf_vector":"1"}},{"base_weights":[-8.5446615E0,-9.255621E1,7.942156E2,-1.2783316E2,4.044063E2,6.663925E2,5.5911842E1,-1.8388269E2,7.122141E1,1.7291623E2,4.9349854E1,5.981131E1,4.6136893E2,-2.3285507E2,-9.5915596E1,3.5712547E1,-4.9798347E1,4.652349E0,1.45114155E1,1.3704349E1,3.7427723E1,-2.1537731E1,-2.1303442E2,1.4362188E1,-1.6317049E2,-1.9106187E2,8.564696E1,-8.323338E1,-2.6413385E2,-1.3022238E2,1.5596679E1,-1.8975838E2,3.68999E-1,-5.5088543E1,-3.0175898E1,3.894737E1,-8.1632744E1,-2.0700105E2,5.8016453E1,-3.1314676E2,-1.9928233E2,-1.4832664E1,-1.1254978E0,-2.3670967E2,-1.2865659E2,-6.969338E0,2.411206E0,2.181952E0,-9.000602E0,-1.7899723E1,-1.537135E2,-6.1277924E0,9.685826E0,-3.9461237E2,-2.3795218E2,-1.6583571E2,-2.031431E1,-5.894804E0,-1.7579147E1,-1.6782162E1,-4.613437E1,-1.8429801E-1,-1.4287136E1,-1.4832899E1,-4.5003055E2,-1.9580296E1,-1.9028615E2,-2.706385E0,-1.8693121E2,-7.5829167E0,3.4752798E0,-1.945004E1,-3.1639114E1,-3.4509523E0,-2.7421057E2,-3.738544E0,-2.2211046E2,-2.0591238E1,-8.957885E0,-1.997237E1,-1.360525E2,-4.7104764E0,-9.497441E0],"categories":[],"categories_nodes":[],"categories_segments":[],"categories_sizes":[],"default_left":[0,0,0,0,0,0,0,0,0,0,0,0,0,0,0,0,0,0,0,0,0,0,0,0,0,0,0,0,0,0,0,0,0,0,0,0,0,0,0,0,0,0,0,0,0,0,0,0,0,0,0,0,0,0,0,0,0,0,0,0,0,0,0,0,0,0,0,0,0,0,0,0,0,0,0,0,0,0,0,0,0,0,0],"id":24,"left_children":[1,3,5,7,9,11,-1,13,15,17,-1,-1,19,21,23,-1,25,-1,-1,-1,-1,-1,27,29,31,33,35,37,39,41,-1,43,-1,45,-1,-1,47,49,51,53,55,-1,-1,57,59,-1,-1,-1,-1,-1,61,-1,-1,63,65,67,-1,-1,-1,-1,69,-1,-1,-1,71,-1,73,-1,75,-1,-1,-1,-1,-1,77,-1,79,-1,-1,-1,81,-1,-1],"loss_changes":[3.345687E7,7.923261E6,3.72966E5,4.6990005E6,2.9481795E6,1.762957E6,0E0,1.390676E6,6.1528035E6,1.3009344E5,0E0,0E0,7.153135E5,4.95995E5,8.849331E5,0E0,1.4896419E6,0E0,0E0,0E0,0E0,0E0,1.211708E6,1.726337E6,3.3475075E5,1.6699838E6,3.970825E6,9.5604625E5,3.60344E5,4.116186E5,0E0,1.531495E5,0E0,1.807454E5,0E0,0E0,2.8588894E5,1.09205125E5,4.80457E5,3.59408E5,2.4429175E5,0E0,0E0,2.8199025E5,3.8383675E5,0E0,0E0,0E0,0E0,0E0,2.913085E5,0E0,0E0,1.47112E5,1.299515E5,1.1954625E5,0E0,0E0,0E0,0E0,1.9588862E5,0E0,0E0,0E0,6.85925E4,0E0,3.131205E5,0E0,1.710505E5,0E0,0E0,0E0,0E0,0E0,1.18988625E5,0E0,2.994665E5,0E0,0E0,0E0,1.8492594E4,0E0,0E0],"parents":[2147483647,0,0,1,1,2,2,3,3,4,4,5,5,7,7,8,8,9,9,12,12,13,13,14,14,16,16,22,22,23,23,24,24,25,25,26,26,27,27,28,28,29,29,31,31,33,33,36,36,37,37,38,38,39,39,40,40,43,43,44,44,50,50,53,53,54,54,55,55,60,60,64,64,66,66,68,68,74,74,76,76,80,80],"right_children":[2,4,6,8,10,12,-1,14,16,18,-1,-1,20,22,24,-1,26,-1,-1,-1,-1,-1,28,30,32,34,36,38,40,42,-1,44,-1,46,-1,-1,48,50,52,54,56,-1,-1,58,60,-1,-1,-1,-1,-1,62,-1,-1,64,66,68,-1,-1,-1,-1,70,-1,-1,-1,72,-1,74,-1,76,-1,-1,-1,-1,-1,78,-1,80,-1,-1,-1,82,-1,-1],"split_conditions":[7.82E2,9.633792E6,2.724E3,3.79E2,3.06E2,9.3E2,5.5911842E1,1.6E1,3.8E2,1.57E2,4.9349854E1,5.981131E1,2.37E3,2.9E1,6.6E1,3.5712547E1,4.7E2,4.652349E0,1.45114155E1,1.3704349E1,3.7427723E1,-2.1537731E1,8.9E1,4.4E1,3.145728E6,3.87E2,5.5E2,4.5E1,1.61E2,3E1,1.5596679E1,1.61E2,3.68999E-1,1.6E1,-3.0175898E1,3.894737E1,1.728E5,4.9152E4,8E0,7.5E5,3.35E2,-1.4832664E1,-1.1254978E0,1.45E2,2.43E4,-6.969338E0,2.411206E0,2.181952E0,-9.000602E0,-1.7899723E1,1.728E5,-6.1277924E0,9.685826E0,1.46E2,1.3E2,9.408E3,-2.031431E1,-5.894804E0,-1.7579147E1,-1.6782162E1,1.92E2,-1.8429801E-1,-1.4287136E1,-1.4832899E1,8E0,-1.9580296E1,1.56E2,-2.706385E0,1.83E2,-7.5829167E0,3.4752798E0,-1.945004E1,-3.1639114E1,-3.4509523E0,2.1675E6,-3.738544E0,2.08E2,-2.0591238E1,-8.957885E0,-1.997237E1,1.96608E5,-4.7104764E0,-9.497441E0],"split_indices":[1,0,1,1,1,1,0,3,1,1,0,0,1,1,1,0,1,0,0,0,0,0,1,1,0,1,1,1,1,1,0,1,0,3,0,0,0,0,3,0,1,0,0,1,0,0,0,0,0,0,0,0,0,1,1,0,0,0,0,0,1,0,0,0,3,0,1,0,1,0,0,0,0,0,0,0,1,0,0,0,0,0,0],"split_type":[0,0,0,0,0,0,0,0,0,0,0,0,0,0,0,0,0,0,0,0,0,0,0,0,0,0,0,0,0,0,0,0,0,0,0,0,0,0,0,0,0,0,0,0,0,0,0,0,0,0,0,0,0,0,0,0,0,0,0,0,0,0,0,0,0,0,0,0,0,0,0,0,0,0,0,0,0,0,0,0,0,0,0],"sum_hessian":[4.94E2,4.48E2,4.6E1,4.19E2,2.9E1,2.9E1,1.7E1,3.27E2,9.2E1,2E1,9E0,9E0,2E1,2.09E2,1.18E2,1.6E1,7.6E1,1E1,1E1,1E1,1E1,2.4E1,1.85E2,4.5E1,7.3E1,3.7E1,3.9E1,5.3E1,1.32E2,2.9E1,1.6E1,6.3E1,1E1,2.7E1,1E1,8E0,3.1E1,2.8E1,2.5E1,7.3E1,5.9E1,1.3E1,1.6E1,3.4E1,2.9E1,1.6E1,1.1E1,1.2E1,1.9E1,8E0,2E1,1E1,1.5E1,3.3E1,4E1,5E1,9E0,1.2E1,2.2E1,9E0,2E1,8E0,1.2E1,1.1E1,2.2E1,1.1E1,2.9E1,8E0,4.2E1,1.1E1,9E0,1.2E1,1E1,1.2E1,1.7E1,1E1,3.2E1,9E0,8E0,1.2E1,2E1,8E0,1.2E1],"tree_param":{"num_deleted":"0","num_feature":"10","num_nodes":"83","size_leaf_vector":"1"}},{"base_weights":[-1.3668594E0,-2.0334816E2,6.9823535E2,-2.9282477E2,6.1643417E1,5.1152457E2,1.2020991E3,-3.6081198E2,-1.8614679E2,-2.515123E1,1.3723785E2,5.122714E0,5.97373E2,3.6578114E1,8.289842E1,-3.3109186E2,-3.2518673E1,-2.7375467E2,-1.3989355E2,-9.628073E1,1.9865402E1,3.0948403E-1,1.8569476E2,2.2472338E1,6.769196E2,-3.706124E2,-2.2137395E2,-1.794998E2,-1.9825317E1,-1.4022924E1,-9.927155E1,-2.6357755E-1,-1.0885748E1,-4.1489E0,5.8062523E1,1.2126766E2,1.9320326E1,3.4673813E1,4.9075546E1,-4.2936905E2,-3.286247E2,-1.3752863E2,-2.8202115E2,-1.3220662E1,-6.151081E0,-1.0169706E1,-1.3465805E2,6.2753153E0,1.595726E-1,4.508521E0,1.0039248E1,-3.269577E2,-2.7745903E1,-2.1322023E1,-2.3532355E2,-1.2729913E1,-2.943416E0,-2.0526165E1,-7.167546E0,-3.4566836E0,2.3415337E0,-2.2023783E0,-1.7475461E2,-8.180631E0,-2.7671623E1,